{"learner":{"attributes":{"scikit_learn":"{\"_estimator_type\": \"regressor\"}"},"feature_names":["hour","day","month","TEMP","DEW_POINT_TEMP","RELATIVE_HUMIDITY","Population"],"feature_types":["int","int","int","float","float","int","int"],"gradient_booster":{"model":{"gbtree_model_param":{"num_parallel_tree":"1","num_trees":"100"},"iteration_indptr":[0,1,2,3,4,5,6,7,8,9,10,11,12,13,14,15,16,17,18,19,20,21,22,23,24,25,26,27,28,29,30,31,32,33,34,35,36,37,38,39,40,41,42,43,44,45,46,47,48,49,50,51,52,53,54,55,56,57,58,59,60,61,62,63,64,65,66,67,68,69,70,71,72,73,74,75,76,77,78,79,80,81,82,83,84,85,86,87,88,89,90,91,92,93,94,95,96,97,98,99,100],"tree_info":[0,0,0,0,0,0,0,0,0,0,0,0,0,0,0,0,0,0,0,0,0,0,0,0,0,0,0,0,0,0,0,0,0,0,0,0,0,0,0,0,0,0,0,0,0,0,0,0,0,0,0,0,0,0,0,0,0,0,0,0,0,0,0,0,0,0,0,0,0,0,0,0,0,0,0,0,0,0,0,0,0,0,0,0,0,0,0,0,0,0,0,0,0,0,0,0,0,0,0,0],"trees":[{"base_weights":[2.4672798E-5,-2.3723442E2,9.842297E1,-9.790193E1,-2.728185E2,1.2088508E2,-6.91628E1,1.6299872E0,-1.3063358E2,-2.853199E2,-1.9445981E2,2.4527196E2,9.0524796E1,5.9888058E1,-9.358009E1,5.391312E1,-3.300283E1,-1.5027339E2,-2.2445082E1,-2.2659314E2,-2.9726782E2,-1.3334396E2,-2.3821266E2,3.3403766E2,2.181879E2,6.6121925E1,2.86712E2,1.5613512E2,3.087576E1,-4.4475414E1,-1.427873E2,3.6315727E0,1.484816E1,-5.1102424E0,6.033073E0,-1.1561557E1,-1.7337126E1,1.7383238E0,-4.7396507E0,-2.3725266E1,-1.1854745E1,-2.4637367E1,-3.1129713E1,-9.041757E0,-1.5486885E1,-2.4123693E1,-3.2144268E0,2.5275946E1,3.615817E1,1.3767115E1,2.4496572E1,-4.496226E0,8.410868E0,2.3878222E1,4.061894E1,2.0352682E1,1.0499969E1,7.869584E0,-1.5316819E0,-6.126237E0,9.881129E0,-1.590257E1,-2.508387E0],"categories":[],"categories_nodes":[],"categories_segments":[],"categories_sizes":[],"default_left":[0,0,0,0,0,0,0,0,0,0,0,0,0,0,0,0,0,0,0,0,0,0,0,0,0,0,0,0,0,0,0,0,0,0,0,0,0,0,0,0,0,0,0,0,0,0,0,0,0,0,0,0,0,0,0,0,0,0,0,0,0,0,0],"id":0,"left_children":[1,3,5,7,9,11,13,15,17,19,21,23,25,27,29,31,33,35,37,39,41,43,45,47,49,51,53,55,57,59,61,-1,-1,-1,-1,-1,-1,-1,-1,-1,-1,-1,-1,-1,-1,-1,-1,-1,-1,-1,-1,-1,-1,-1,-1,-1,-1,-1,-1,-1,-1,-1,-1],"loss_changes":[1.6238045E9,1.0107738E8,1.8503267E8,1.3520264E7,1.5856E7,1.636592E8,1.8313334E7,1.8631914E6,6.632384E6,9.760128E6,5.952632E6,2.0369472E7,1.6678342E8,2.5781018E6,1.1799712E7,6.769129E5,1.0487591E6,2.095736E6,4.7882894E5,2.703744E6,8.230784E6,8.50847E5,8.0428E5,4.354736E6,1.401952E7,6.191912E7,2.1973056E7,4.972365E5,1.5739655E6,5.891937E6,4.65962E6,0E0,0E0,0E0,0E0,0E0,0E0,0E0,0E0,0E0,0E0,0E0,0E0,0E0,0E0,0E0,0E0,0E0,0E0,0E0,0E0,0E0,0E0,0E0,0E0,0E0,0E0,0E0,0E0,0E0,0E0,0E0,0E0],"parents":[2147483647,0,0,1,1,2,2,3,3,4,4,5,5,6,6,7,7,8,8,9,9,10,10,11,11,12,12,13,13,14,14,15,15,16,16,17,17,18,18,19,19,20,20,21,21,22,22,23,23,24,24,25,25,26,26,27,27,28,28,29,29,30,30],"right_children":[2,4,6,8,10,12,14,16,18,20,22,24,26,28,30,32,34,36,38,40,42,44,46,48,50,52,54,56,58,60,62,-1,-1,-1,-1,-1,-1,-1,-1,-1,-1,-1,-1,-1,-1,-1,-1,-1,-1,-1,-1,-1,-1,-1,-1,-1,-1,-1,-1,-1,-1,-1,-1],"split_conditions":[7E0,-8.5E0,2.2E1,-2.36E1,6E0,-6.4E0,-1.01E1,-3.02E1,6E0,1E0,1.9E0,-2.26E1,2.19E1,-2.48E1,2.3E1,6E0,6E0,-1.75E1,-1.47E1,1.44E1,-2.2E0,4E0,1.69E1,1E1,1E1,9E0,2.59E1,2.3E1,2.3E1,1.56E1,1.41E1,3.6315727E0,1.484816E1,-5.1102424E0,6.033073E0,-1.1561557E1,-1.7337126E1,1.7383238E0,-4.7396507E0,-2.3725266E1,-1.1854745E1,-2.4637367E1,-3.1129713E1,-9.041757E0,-1.5486885E1,-2.4123693E1,-3.2144268E0,2.5275946E1,3.615817E1,1.3767115E1,2.4496572E1,-4.496226E0,8.410868E0,2.3878222E1,4.061894E1,2.0352682E1,1.0499969E1,7.869584E0,-1.5316819E0,-6.126237E0,9.881129E0,-1.590257E1,-2.508387E0],"split_indices":[0,3,0,4,0,3,3,4,0,0,3,4,3,4,0,0,0,4,3,3,3,2,3,0,0,0,3,0,0,3,3,0,0,0,0,0,0,0,0,0,0,0,0,0,0,0,0,0,0,0,0,0,0,0,0,0,0,0,0,0,0,0,0],"split_type":[0,0,0,0,0,0,0,0,0,0,0,0,0,0,0,0,0,0,0,0,0,0,0,0,0,0,0,0,0,0,0,0,0,0,0,0,0,0,0,0,0,0,0,0,0,0,0,0,0,0,0,0,0,0,0,0,0,0,0,0,0,0,0],"sum_hessian":[6.9542E4,2.0391E4,4.9151E4,4.149E3,1.6242E4,4.3342E4,5.809E3,1.027E3,3.122E3,1.4005E4,2.237E3,8.502E3,3.484E4,9.24E2,4.885E3,4.09E2,6.18E2,2.642E3,4.8E2,2.371E3,1.1634E4,9.35E2,1.302E3,1.985E3,6.517E3,3.0987E4,3.853E3,2.13E2,7.11E2,2.446E3,2.439E3,3.46E2,6.3E1,5.18E2,1E2,1.059E3,1.583E3,1.85E2,2.95E2,2.157E3,2.14E2,2.518E3,9.116E3,3.14E2,6.21E2,1.283E3,1.9E1,5.05E2,1.48E3,1.628E3,4.889E3,4.318E3,2.6669E4,2.752E3,1.101E3,1.09E2,1.04E2,3.49E2,3.62E2,2.19E3,2.56E2,2.143E3,2.96E2],"tree_param":{"num_deleted":"0","num_feature":"7","num_nodes":"63","size_leaf_vector":"1"}},{"base_weights":[5.205669E-4,-2.135186E2,8.858454E1,-9.574902E1,-2.4774988E2,1.0880043E2,-6.224264E1,-3.841461E0,-1.2551855E2,-2.5902515E2,-1.7745349E2,2.0576978E2,7.6050995E1,4.4100693E1,-8.675464E1,6.0025154E1,-2.886232E1,-1.4274126E2,-2.7093513E1,-2.6397003E2,-1.2881303E2,-1.2560056E2,-2.1651288E2,2.8494067E2,1.7858662E2,4.8577732E1,2.4133218E2,1.1675173E2,1.1806391E1,-1.0607171E2,2.6277998E1,-8.841323E-1,7.886757E0,-4.621324E0,6.0476966E0,-1.1659246E1,-1.6965563E1,1.8032637E-1,-5.6447062E0,-2.2502981E1,-2.7810637E1,-1.4956649E1,2.9884812E-1,-1.4152277E1,-7.142904E0,-2.2326984E1,-1.3132895E1,2.0969395E1,3.1003057E1,1.1063309E1,2.005137E1,-5.2715354E0,6.5163736E0,1.9489986E1,3.5104393E1,1.6108526E1,7.2252016E0,5.6754484E0,-3.176782E0,-6.3711934E0,-1.4665184E1,-5.538799E0,6.857887E0],"categories":[],"categories_nodes":[],"categories_segments":[],"categories_sizes":[],"default_left":[0,0,0,0,0,0,0,0,0,0,0,0,0,0,0,0,0,0,0,0,0,0,0,0,0,0,0,0,0,0,0,0,0,0,0,0,0,0,0,0,0,0,0,0,0,0,0,0,0,0,0,0,0,0,0,0,0,0,0,0,0,0,0],"id":1,"left_children":[1,3,5,7,9,11,13,15,17,19,21,23,25,27,29,31,33,35,37,39,41,43,45,47,49,51,53,55,57,59,61,-1,-1,-1,-1,-1,-1,-1,-1,-1,-1,-1,-1,-1,-1,-1,-1,-1,-1,-1,-1,-1,-1,-1,-1,-1,-1,-1,-1,-1,-1,-1,-1],"loss_changes":[1.3153819E9,8.218458E7,1.4987642E8,1.2568908E7,1.2476416E7,1.3762835E8,1.514868E7,1.7994798E6,5.878288E6,8.7312E6,4.40224E6,2.3497568E7,1.4711974E8,2.5536488E6,1.0313084E7,4.1204E5,1.2568409E6,2.058472E6,4.394813E5,7.156288E6,1.3681145E6,8.02395E5,6.87852E5,5.21176E6,1.2118528E7,4.6683556E7,2.3456448E7,6.492595E5,1.480529E6,6.923244E6,2.3874325E6,0E0,0E0,0E0,0E0,0E0,0E0,0E0,0E0,0E0,0E0,0E0,0E0,0E0,0E0,0E0,0E0,0E0,0E0,0E0,0E0,0E0,0E0,0E0,0E0,0E0,0E0,0E0,0E0,0E0,0E0,0E0,0E0],"parents":[2147483647,0,0,1,1,2,2,3,3,4,4,5,5,6,6,7,7,8,8,9,9,10,10,11,11,12,12,13,13,14,14,15,15,16,16,17,17,18,18,19,19,20,20,21,21,22,22,23,23,24,24,25,25,26,26,27,27,28,28,29,29,30,30],"right_children":[2,4,6,8,10,12,14,16,18,20,22,24,26,28,30,32,34,36,38,40,42,44,46,48,50,52,54,56,58,60,62,-1,-1,-1,-1,-1,-1,-1,-1,-1,-1,-1,-1,-1,-1,-1,-1,-1,-1,-1,-1,-1,-1,-1,-1,-1,-1,-1,-1,-1,-1,-1,-1],"split_conditions":[7E0,-7.4E0,2.2E1,-2.31E1,6E0,-3.6E0,-8.3E0,-3.18E1,6E0,1.54E1,2.6E0,-2.02E1,2.11E1,-2.2E1,1.41E1,1.026499E6,6E0,-1.23E1,-1.23E1,-9E-1,1.88E1,1.1E1,1.47E1,1E1,1E1,9E0,2.53E1,2.3E1,2.3E1,2.3E1,1.08E1,-8.841323E-1,7.886757E0,-4.621324E0,6.0476966E0,-1.1659246E1,-1.6965563E1,1.8032637E-1,-5.6447062E0,-2.2502981E1,-2.7810637E1,-1.4956649E1,2.9884812E-1,-1.4152277E1,-7.142904E0,-2.2326984E1,-1.3132895E1,2.0969395E1,3.1003057E1,1.1063309E1,2.005137E1,-5.2715354E0,6.5163736E0,1.9489986E1,3.5104393E1,1.6108526E1,7.2252016E0,5.6754484E0,-3.176782E0,-6.3711934E0,-1.4665184E1,-5.538799E0,6.857887E0],"split_indices":[0,3,0,4,0,3,3,4,0,3,3,4,3,4,3,6,0,3,3,3,3,2,3,0,0,0,3,0,0,0,4,0,0,0,0,0,0,0,0,0,0,0,0,0,0,0,0,0,0,0,0,0,0,0,0,0,0,0,0,0,0,0,0],"split_type":[0,0,0,0,0,0,0,0,0,0,0,0,0,0,0,0,0,0,0,0,0,0,0,0,0,0,0,0,0,0,0,0,0,0,0,0,0,0,0,0,0,0,0,0,0,0,0,0,0,0,0,0,0,0,0,0,0,0,0,0,0,0,0],"sum_hessian":[6.9542E4,2.0391E4,4.9151E4,4.593E3,1.5798E4,4.3342E4,5.809E3,1.124E3,3.469E3,1.3612E4,2.186E3,1.0941E4,3.2401E4,1.088E3,4.721E3,3.16E2,8.08E2,2.952E3,5.17E2,1.3113E4,4.99E2,9.41E2,1.245E3,2.794E3,8.147E3,2.7784E4,4.617E3,3.34E2,7.54E2,4.032E3,6.89E2,6.8E1,2.48E2,6.77E2,1.31E2,1.5E3,1.452E3,2.61E2,2.56E2,3.497E3,9.616E3,4.31E2,6.8E1,7.26E2,2.15E2,1.152E3,9.3E1,7.01E2,2.093E3,1.989E3,6.158E3,3.909E3,2.3875E4,3.246E3,1.371E3,1.66E2,1.68E2,3.71E2,3.83E2,1.974E3,2.058E3,2.35E2,4.54E2],"tree_param":{"num_deleted":"0","num_feature":"7","num_nodes":"63","size_leaf_vector":"1"}},{"base_weights":[4.38962E-4,-1.9217395E2,7.972904E1,-8.8695076E1,-2.2378166E2,9.79236E1,-5.6017326E1,-1.781796E1,-1.2063822E2,-2.3388136E2,-1.608725E2,1.7792627E2,6.552363E1,3.3948647E1,-7.954163E1,3.2369457E1,-5.0144936E1,-1.3623494E2,-3.123612E1,-2.4201645E2,-1.6274205E2,-1.0478071E2,-1.8947195E2,2.3847357E2,1.4808342E2,3.5147335E1,2.0030489E2,8.7725105E1,-2.7746968E0,-9.769945E1,2.36521E1,1.700529E0,1.1508156E1,-6.52456E0,3.3323762E0,-1.1510609E1,-1.5892418E1,-3.9748582E-1,-5.573472E0,-1.8677584E1,-2.5241753E1,-1.7765072E1,-5.450722E0,-6.888599E0,-1.2321714E1,-2.1533451E1,-1.71094E1,1.8130615E1,2.674195E1,6.6108155E0,1.644103E1,-5.6769137E0,5.038568E0,1.531713E1,2.9173162E1,1.548056E1,6.144252E0,3.725809E0,-4.126859E0,-5.957124E0,-1.3421555E1,-1.1430358E0,1.1739053E1],"categories":[],"categories_nodes":[],"categories_segments":[],"categories_sizes":[],"default_left":[0,0,0,0,0,0,0,0,0,0,0,0,0,0,0,0,0,0,0,0,0,0,0,0,0,0,0,0,0,0,0,0,0,0,0,0,0,0,0,0,0,0,0,0,0,0,0,0,0,0,0,0,0,0,0,0,0,0,0,0,0,0,0],"id":2,"left_children":[1,3,5,7,9,11,13,15,17,19,21,23,25,27,29,31,33,35,37,39,41,43,45,47,49,51,53,55,57,59,61,-1,-1,-1,-1,-1,-1,-1,-1,-1,-1,-1,-1,-1,-1,-1,-1,-1,-1,-1,-1,-1,-1,-1,-1,-1,-1,-1,-1,-1,-1,-1,-1],"loss_changes":[1.06553894E9,6.667693E7,1.2140333E8,1.0804104E7,9.88672E6,1.1233699E8,1.229891E7,2.4092758E6,4.583248E6,7.74848E6,3.451624E6,2.2538368E7,1.2630174E8,2.3799395E6,8.632906E6,7.376502E5,1.1403448E6,1.324504E6,3.270312E5,6.890112E6,2.223592E6,4.765895E5,6.43788E5,6.774096E6,1.1192864E7,3.5268548E7,2.4406128E7,8.526195E5,1.1064475E6,5.445616E6,2.270458E6,0E0,0E0,0E0,0E0,0E0,0E0,0E0,0E0,0E0,0E0,0E0,0E0,0E0,0E0,0E0,0E0,0E0,0E0,0E0,0E0,0E0,0E0,0E0,0E0,0E0,0E0,0E0,0E0,0E0,0E0,0E0,0E0],"parents":[2147483647,0,0,1,1,2,2,3,3,4,4,5,5,6,6,7,7,8,8,9,9,10,10,11,11,12,12,13,13,14,14,15,15,16,16,17,17,18,18,19,19,20,20,21,21,22,22,23,23,24,24,25,25,26,26,27,27,28,28,29,29,30,30],"right_children":[2,4,6,8,10,12,14,16,18,20,22,24,26,28,30,32,34,36,38,40,42,44,46,48,50,52,54,56,58,60,62,-1,-1,-1,-1,-1,-1,-1,-1,-1,-1,-1,-1,-1,-1,-1,-1,-1,-1,-1,-1,-1,-1,-1,-1,-1,-1,-1,-1,-1,-1,-1,-1],"split_conditions":[7E0,-7E0,2.2E1,-2.11E1,6E0,-2E0,-7.2E0,-2.76E1,6E0,1.32E1,7E-1,-1.36E1,2.01E1,-1.9E1,1.41E1,6E0,6E0,-1.11E1,1.046556E6,4E0,1.74E1,4E0,7E0,1.1E1,9E0,9E0,2.43E1,-2.76E1,2.3E1,2.3E1,1.78E1,1.700529E0,1.1508156E1,-6.52456E0,3.3323762E0,-1.1510609E1,-1.5892418E1,-3.9748582E-1,-5.573472E0,-1.8677584E1,-2.5241753E1,-1.7765072E1,-5.450722E0,-6.888599E0,-1.2321714E1,-2.1533451E1,-1.71094E1,1.8130615E1,2.674195E1,6.6108155E0,1.644103E1,-5.6769137E0,5.038568E0,1.531713E1,2.9173162E1,1.548056E1,6.144252E0,3.725809E0,-4.126859E0,-5.957124E0,-1.3421555E1,-1.1430358E0,1.1739053E1],"split_indices":[0,3,0,4,0,3,3,4,0,3,3,3,3,4,3,0,0,3,6,2,3,2,2,0,0,0,3,4,0,0,3,0,0,0,0,0,0,0,0,0,0,0,0,0,0,0,0,0,0,0,0,0,0,0,0,0,0,0,0,0,0,0,0],"split_type":[0,0,0,0,0,0,0,0,0,0,0,0,0,0,0,0,0,0,0,0,0,0,0,0,0,0,0,0,0,0,0,0,0,0,0,0,0,0,0,0,0,0,0,0,0,0,0,0,0,0,0,0,0,0,0,0,0,0,0,0,0,0,0],"sum_hessian":[6.9542E4,2.0391E4,4.9151E4,4.772E3,1.5619E4,4.3342E4,5.809E3,1.483E3,3.289E3,1.3456E4,2.163E3,1.2492E4,3.085E4,1.204E3,4.605E3,5.81E2,9.02E2,2.8E3,4.89E2,1.2073E4,1.383E3,7.32E2,1.431E3,4.122E3,8.37E3,2.5177E4,5.673E3,4.88E2,7.16E2,3.916E3,6.89E2,4.91E2,9E1,7.64E2,1.38E2,1.453E3,1.347E3,2.32E2,2.57E2,1.916E3,1.0157E4,1.215E3,1.68E2,2.5E2,4.82E2,5.9E2,8.41E2,1.388E3,2.734E3,1.391E3,6.979E3,3.58E3,2.1597E4,3.745E3,1.928E3,1.36E2,3.52E2,3.51E2,3.65E2,1.917E3,1.999E3,5.02E2,1.87E2],"tree_param":{"num_deleted":"0","num_feature":"7","num_nodes":"63","size_leaf_vector":"1"}},{"base_weights":[3.1523818E-5,-1.7296387E2,7.175865E1,-8.752292E1,-2.0416107E2,9.255828E1,-2.4976587E1,-2.1176296E1,-1.1658114E2,-2.1290805E2,-1.4938065E2,1.7000162E2,6.461419E1,6.28066E0,-8.728887E1,2.9155174E1,-4.822966E1,-1.3093434E2,-3.5502567E1,-1.601782E2,-2.2369162E2,-1.0848791E2,-1.760084E2,1.1612112E2,1.9797495E2,4.3095646E1,2.103327E2,1.0409769E2,-1.3825331E1,-1.2026696E1,-1.1076253E2,1.5308183E0,1.0369985E1,-6.2075815E0,3.136279E0,-8.18788E0,-1.3999727E1,-6.547032E-1,-5.178206E0,-1.7470354E1,-8.918169E0,-2.3194508E1,-1.7363716E1,-1.2167497E1,-5.8112817E0,-1.7874964E1,9.6690066E-2,2.0183561E1,9.851784E0,2.4117907E1,1.6017612E1,-2.6261802E0,6.2786665E0,1.3357062E1,2.5729801E1,1.8123646E1,8.215171E0,-2.8183296E0,1.1779328E1,5.970791E0,-3.3537972E0,-1.2823318E1,-3.1168892E0],"categories":[],"categories_nodes":[],"categories_segments":[],"categories_sizes":[],"default_left":[0,0,0,0,0,0,0,0,0,0,0,0,0,0,0,0,0,0,0,0,0,0,0,0,0,0,0,0,0,0,0,0,0,0,0,0,0,0,0,0,0,0,0,0,0,0,0,0,0,0,0,0,0,0,0,0,0,0,0,0,0,0,0],"id":3,"left_children":[1,3,5,7,9,11,13,15,17,19,21,23,25,27,29,31,33,35,37,39,41,43,45,47,49,51,53,55,57,59,61,-1,-1,-1,-1,-1,-1,-1,-1,-1,-1,-1,-1,-1,-1,-1,-1,-1,-1,-1,-1,-1,-1,-1,-1,-1,-1,-1,-1,-1,-1,-1,-1],"loss_changes":[8.6315584E8,5.433741E7,9.88989E7,1.0516236E7,7.12544E6,8.753485E7,1.6943682E7,2.2658062E6,4.410568E6,7.286784E6,2.224E6,1.6143392E7,9.321067E7,1.1396547E7,5.132636E6,5.991641E5,1.1943642E6,1.42144E6,2.6929106E5,2.242852E6,4.375584E6,5.34333E5,6.04648E5,5.5146E6,1.1489184E7,3.5380596E7,1.375536E7,1.657682E6,9.087471E6,1.0698296E6,3.076074E6,0E0,0E0,0E0,0E0,0E0,0E0,0E0,0E0,0E0,0E0,0E0,0E0,0E0,0E0,0E0,0E0,0E0,0E0,0E0,0E0,0E0,0E0,0E0,0E0,0E0,0E0,0E0,0E0,0E0,0E0,0E0,0E0],"parents":[2147483647,0,0,1,1,2,2,3,3,4,4,5,5,6,6,7,7,8,8,9,9,10,10,11,11,12,12,13,13,14,14,15,15,16,16,17,17,18,18,19,19,20,20,21,21,22,22,23,23,24,24,25,25,26,26,27,27,28,28,29,29,30,30],"right_children":[2,4,6,8,10,12,14,16,18,20,22,24,26,28,30,32,34,36,38,40,42,44,46,48,50,52,54,56,58,60,62,-1,-1,-1,-1,-1,-1,-1,-1,-1,-1,-1,-1,-1,-1,-1,-1,-1,-1,-1,-1,-1,-1,-1,-1,-1,-1,-1,-1,-1,-1,-1,-1],"split_conditions":[7E0,-5.7E0,2.1E1,-2.02E1,6E0,-2.9E0,2.3E1,-2.76E1,6E0,1E0,2.6E0,1.1E1,2.19E1,-9E0,-6E0,6E0,6E0,1E0,3E0,1.04E1,1.03E1,1.1E1,1.69E1,-1.96E1,-1.08E1,1E1,9.8E0,-2.48E1,1.64E1,-1.91E1,1.02E1,1.5308183E0,1.0369985E1,-6.2075815E0,3.136279E0,-8.18788E0,-1.3999727E1,-6.547032E-1,-5.178206E0,-1.7470354E1,-8.918169E0,-2.3194508E1,-1.7363716E1,-1.2167497E1,-5.8112817E0,-1.7874964E1,9.6690066E-2,2.0183561E1,9.851784E0,2.4117907E1,1.6017612E1,-2.6261802E0,6.2786665E0,1.3357062E1,2.5729801E1,1.8123646E1,8.215171E0,-2.8183296E0,1.1779328E1,5.970791E0,-3.3537972E0,-1.2823318E1,-3.1168892E0],"split_indices":[0,3,0,4,0,3,0,4,0,0,3,0,3,3,3,0,0,0,2,4,4,2,3,3,3,0,4,4,3,3,4,0,0,0,0,0,0,0,0,0,0,0,0,0,0,0,0,0,0,0,0,0,0,0,0,0,0,0,0,0,0,0,0],"split_type":[0,0,0,0,0,0,0,0,0,0,0,0,0,0,0,0,0,0,0,0,0,0,0,0,0,0,0,0,0,0,0,0,0,0,0,0,0,0,0,0,0,0,0,0,0,0,0,0,0,0,0,0,0,0,0,0,0,0,0,0,0,0,0],"sum_hessian":[6.9542E4,2.0391E4,4.9151E4,5.455E3,1.4936E4,4.0453E4,8.698E3,1.662E3,3.793E3,1.2877E4,2.059E3,1.0725E4,2.9728E4,5.793E3,2.905E3,5.81E2,1.081E3,3.222E3,5.71E2,2.189E3,1.0688E4,8.14E2,1.245E3,3.667E3,7.058E3,2.5904E4,3.824E3,9.87E2,4.806E3,6.91E2,2.214E3,4.91E2,9E1,9.21E2,1.6E2,5.04E2,2.718E3,2.06E2,3.65E2,1.816E3,3.73E2,9.172E3,1.516E3,6.44E2,1.7E2,1.226E3,1.9E1,6.23E2,3.044E3,3.291E3,3.767E3,5.728E3,2.0176E4,1.453E3,2.371E3,2.17E2,7.7E2,4.334E3,4.72E2,1.59E2,5.32E2,1.815E3,3.99E2],"tree_param":{"num_deleted":"0","num_feature":"7","num_nodes":"63","size_leaf_vector":"1"}},{"base_weights":[2.1092116E-4,-1.5567346E2,6.4585526E1,-5.5479107E1,-1.7752856E2,7.944274E1,-4.6261433E1,1.0750405E1,-7.532115E1,-1.3576842E2,-1.9000362E2,1.4303696E2,5.1825317E1,1.7846539E1,-6.853685E1,4.8117783E1,-1.1747144E1,-8.785669E1,-4.7384653E0,-1.4809097E2,-6.163146E1,-2.0166574E2,-1.421829E2,2.1148746E2,1.2450058E2,2.444355E1,1.5853526E2,7.135413E1,-8.051643E0,-8.7991875E1,1.2460352E1,-1.3316427E0,6.4948473E0,-2.4248922E0,4.9225364E0,-4.230985E0,-9.624434E0,1.7329801E0,-2.6992571E0,-1.038988E1,-1.5653481E1,-2.1553085E0,-7.471364E0,-2.098311E1,-1.4870168E1,-1.586297E1,-6.899663E0,1.3487116E1,2.2703642E1,5.6146755E0,1.3870674E1,8.087823E0,5.480167E-1,1.2805522E1,2.6505543E1,1.2721259E1,4.9473224E0,2.400039E0,-3.8967779E0,-5.7762923E0,-1.178592E1,-1.2452062E0,1.31266775E1],"categories":[],"categories_nodes":[],"categories_segments":[],"categories_sizes":[],"default_left":[0,0,0,0,0,0,0,0,0,0,0,0,0,0,0,0,0,0,0,0,0,0,0,0,0,0,0,0,0,0,0,0,0,0,0,0,0,0,0,0,0,0,0,0,0,0,0,0,0,0,0,0,0,0,0,0,0,0,0,0,0,0,0],"id":4,"left_children":[1,3,5,7,9,11,13,15,17,19,21,23,25,27,29,31,33,35,37,39,41,43,45,47,49,51,53,55,57,59,61,-1,-1,-1,-1,-1,-1,-1,-1,-1,-1,-1,-1,-1,-1,-1,-1,-1,-1,-1,-1,-1,-1,-1,-1,-1,-1,-1,-1,-1,-1,-1,-1],"loss_changes":[6.9921165E8,4.464371E7,8.095101E7,4.801324E6,8.69504E6,7.611626E7,8.298088E6,7.0925375E5,2.486732E6,3.511712E6,7.158304E6,1.6624448E7,8.8299064E7,2.0778128E6,6.795956E6,3.286367E5,4.029072E5,9.07836E5,2.0918933E5,1.216632E6,2.8728588E5,4.44832E6,3.03436E6,3.299072E6,1.0022144E7,2.5738752E7,2.000168E7,5.9137875E5,1.00276044E6,3.132428E6,2.4759892E6,0E0,0E0,0E0,0E0,0E0,0E0,0E0,0E0,0E0,0E0,0E0,0E0,0E0,0E0,0E0,0E0,0E0,0E0,0E0,0E0,0E0,0E0,0E0,0E0,0E0,0E0,0E0,0E0,0E0,0E0,0E0,0E0],"parents":[2147483647,0,0,1,1,2,2,3,3,4,4,5,5,6,6,7,7,8,8,9,9,10,10,11,11,12,12,13,13,14,14,15,15,16,16,17,17,18,18,19,19,20,20,21,21,22,22,23,23,24,24,25,25,26,26,27,27,28,28,29,29,30,30],"right_children":[2,4,6,8,10,12,14,16,18,20,22,24,26,28,30,32,34,36,38,40,42,44,46,48,50,52,54,56,58,60,62,-1,-1,-1,-1,-1,-1,-1,-1,-1,-1,-1,-1,-1,-1,-1,-1,-1,-1,-1,-1,-1,-1,-1,-1,-1,-1,-1,-1,-1,-1,-1,-1],"split_conditions":[7E0,-9.8E0,2.2E1,-2.48E1,-2.4E0,-1.4E0,-5E0,-3.18E1,6E0,6E0,9.9E0,-2.02E1,1.97E1,-1.9E1,1.02E1,1.026499E6,6E0,1E0,-1.47E1,1E0,3E0,6E0,1.54E1,9E0,9E0,3.4E0,2.53E1,-2.76E1,2.3E1,2.3E1,1.78E1,-1.3316427E0,6.4948473E0,-2.4248922E0,4.9225364E0,-4.230985E0,-9.624434E0,1.7329801E0,-2.6992571E0,-1.038988E1,-1.5653481E1,-2.1553085E0,-7.471364E0,-2.098311E1,-1.4870168E1,-1.586297E1,-6.899663E0,1.3487116E1,2.2703642E1,5.6146755E0,1.3870674E1,8.087823E0,5.480167E-1,1.2805522E1,2.6505543E1,1.2721259E1,4.9473224E0,2.400039E0,-3.8967779E0,-5.7762923E0,-1.178592E1,-1.2452062E0,1.31266775E1],"split_indices":[0,3,0,4,3,3,3,4,0,0,4,4,3,4,4,6,0,0,3,0,2,0,3,0,0,3,3,4,0,0,3,0,0,0,0,0,0,0,0,0,0,0,0,0,0,0,0,0,0,0,0,0,0,0,0,0,0,0,0,0,0,0,0],"split_type":[0,0,0,0,0,0,0,0,0,0,0,0,0,0,0,0,0,0,0,0,0,0,0,0,0,0,0,0,0,0,0,0,0,0,0,0,0,0,0,0,0,0,0,0,0,0,0,0,0,0,0,0,0,0,0,0,0,0,0,0,0,0,0],"sum_hessian":[6.9542E4,2.0391E4,4.9151E4,3.652E3,1.6739E4,4.3342E4,5.809E3,8.42E2,2.81E3,3.853E3,1.2886E4,1.3122E4,3.022E4,1.498E3,4.311E3,3.16E2,5.26E2,2.386E3,4.24E2,3.303E3,5.5E2,1.0357E4,2.529E3,2.794E3,1.0328E4,2.405E4,6.17E3,4.88E2,1.01E3,3.476E3,8.35E2,6.8E1,2.48E2,4.37E2,8.9E1,3.72E2,2.014E3,2.13E2,2.11E2,5.32E2,2.771E3,1.36E2,4.14E2,8.971E3,1.386E3,2.064E3,4.65E2,4.73E2,2.321E3,1.778E3,8.55E3,6.048E3,1.8002E4,4.799E3,1.371E3,1.36E2,3.52E2,4.96E2,5.14E2,1.729E3,1.747E3,6.91E2,1.44E2],"tree_param":{"num_deleted":"0","num_feature":"7","num_nodes":"63","size_leaf_vector":"1"}},{"base_weights":[3.8148573E-4,-1.27731445E2,6.4245865E1,-5.771236E1,-1.5573308E2,8.417034E1,-2.181997E1,-8.488471E1,2.0650036E1,-1.7374968E2,-9.975418E1,1.3842462E2,5.57214E1,6.2555576E1,-3.6586163E1,-3.235873E1,-1.1106615E2,9.6100945E1,6.0915456E0,-1.4354951E2,-1.8925977E2,-5.685322E1,-1.2422794E2,1.8238322E2,1.1358137E2,3.608965E1,1.8352614E2,8.950413E1,9.010275E0,-4.8821995E1,7.139409E1,1.8537422E0,-4.9838243E0,-7.119606E0,-1.1844354E1,1.2611229E1,4.724075E0,-2.2176747E0,3.5229626E0,-1.5677408E1,-8.736373E0,-1.9495499E1,-1.3016129E1,-8.77408E0,-2.3355005E0,-1.287056E1,2.0936344E0,1.5704322E1,2.244642E1,1.4022321E1,8.766909E0,-1.00819364E-1,5.6949463E0,1.2873904E1,2.3992872E1,1.4694272E1,6.9952006E0,1.015734E1,-2.1966074E-1,-2.5552893E0,-9.282996E0,5.3843384E0,2.34383E1],"categories":[],"categories_nodes":[],"categories_segments":[],"categories_sizes":[],"default_left":[0,0,0,0,0,0,0,0,0,0,0,0,0,0,0,0,0,0,0,0,0,0,0,0,0,0,0,0,0,0,0,0,0,0,0,0,0,0,0,0,0,0,0,0,0,0,0,0,0,0,0,0,0,0,0,0,0,0,0,0,0,0,0],"id":5,"left_children":[1,3,5,7,9,11,13,15,17,19,21,23,25,27,29,31,33,35,37,39,41,43,45,47,49,51,53,55,57,59,61,-1,-1,-1,-1,-1,-1,-1,-1,-1,-1,-1,-1,-1,-1,-1,-1,-1,-1,-1,-1,-1,-1,-1,-1,-1,-1,-1,-1,-1,-1,-1,-1],"loss_changes":[5.7069146E8,4.5621216E7,7.934814E7,1.4161536E7,1.6748768E7,5.798531E7,1.084042E7,6.787168E6,1.881062E6,5.86304E6,4.245224E6,1.409328E7,6.1840976E7,1.8692805E6,9.785861E6,1.4634919E6,9.60752E5,4.00224E5,1.1844149E6,3.159784E6,2.76992E6,1.5220325E6,1.67838E6,4.939184E6,5.69E6,1.6536544E7,1.0110928E7,9.577865E5,4.5146778E5,6.808422E6,2.1442502E6,0E0,0E0,0E0,0E0,0E0,0E0,0E0,0E0,0E0,0E0,0E0,0E0,0E0,0E0,0E0,0E0,0E0,0E0,0E0,0E0,0E0,0E0,0E0,0E0,0E0,0E0,0E0,0E0,0E0,0E0,0E0,0E0],"parents":[2147483647,0,0,1,1,2,2,3,3,4,4,5,5,6,6,7,7,8,8,9,9,10,10,11,11,12,12,13,13,14,14,15,15,16,16,17,17,18,18,19,19,20,20,21,21,22,22,23,23,24,24,25,25,26,26,27,27,28,28,29,29,30,30],"right_children":[2,4,6,8,10,12,14,16,18,20,22,24,26,28,30,32,34,36,38,40,42,44,46,48,50,52,54,56,58,60,62,-1,-1,-1,-1,-1,-1,-1,-1,-1,-1,-1,-1,-1,-1,-1,-1,-1,-1,-1,-1,-1,-1,-1,-1,-1,-1,-1,-1,-1,-1,-1,-1],"split_conditions":[8E0,-5E0,2.1E1,6E0,6E0,5E-1,-1.06E1,-1.9E1,-2.14E1,2E0,2.6E0,-1.08E1,2.25E1,2.3E1,1.57E1,-2.88E1,1E0,3E0,7E0,9.9E0,1.1E1,7E0,1.73E1,1.6E1,1.046556E6,6E0,1.17E1,-2.48E1,-3.02E1,2.3E1,2.11E1,1.8537422E0,-4.9838243E0,-7.119606E0,-1.1844354E1,1.2611229E1,4.724075E0,-2.2176747E0,3.5229626E0,-1.5677408E1,-8.736373E0,-1.9495499E1,-1.3016129E1,-8.77408E0,-2.3355005E0,-1.287056E1,2.0936344E0,1.5704322E1,2.244642E1,1.4022321E1,8.766909E0,-1.00819364E-1,5.6949463E0,1.2873904E1,2.3992872E1,1.4694272E1,6.9952006E0,1.015734E1,-2.1966074E-1,-2.5552893E0,-9.282996E0,5.3843384E0,2.34383E1],"split_indices":[0,3,0,0,0,3,3,4,3,0,3,3,3,0,3,4,0,2,0,4,2,0,3,0,6,2,4,4,4,0,3,0,0,0,0,0,0,0,0,0,0,0,0,0,0,0,0,0,0,0,0,0,0,0,0,0,0,0,0,0,0,0,0],"split_type":[0,0,0,0,0,0,0,0,0,0,0,0,0,0,0,0,0,0,0,0,0,0,0,0,0,0,0,0,0,0,0,0,0,0,0,0,0,0,0,0,0,0,0,0,0,0,0,0,0,0,0,0,0,0,0,0,0,0,0,0,0,0,0],"sum_hessian":[6.9542E4,2.3272E4,4.627E4,6.649E3,1.6623E4,3.7572E4,8.698E3,4.937E3,1.712E3,1.2574E4,4.049E3,1.2923E4,2.4649E4,1.295E3,7.403E3,1.643E3,3.294E3,2.76E2,1.436E3,4.27E3,8.304E3,1.472E3,2.577E3,4.664E3,8.259E3,2.1368E4,3.281E3,8.61E2,4.34E2,6.65E3,7.53E2,4.2E2,1.223E3,5.16E2,2.778E3,1.7E2,1.06E2,7.29E2,7.07E2,3.455E3,8.15E2,7.572E3,7.32E2,7.65E2,7.07E2,2.5E3,7.7E1,2.914E3,1.75E3,4.07E3,4.189E3,7.691E3,1.3677E4,1.666E3,1.615E3,2.17E2,6.44E2,4.6E1,3.88E2,4.351E3,2.299E3,6.81E2,7.2E1],"tree_param":{"num_deleted":"0","num_feature":"7","num_nodes":"63","size_leaf_vector":"1"}},{"base_weights":[1.3356573E-3,-1.14961845E2,5.7824554E1,-5.4547108E1,-1.4136801E2,7.575605E1,-1.9632391E1,-7.894449E1,1.6743439E1,-1.574852E2,-9.148589E1,1.2203614E2,4.838699E1,3.439903E1,-3.910429E1,-3.3128365E1,-1.0357936E2,5.7023155E1,-7.7474756E0,-1.6549313E2,-1.043683E2,-4.4447285E1,-1.0795832E2,1.8845259E2,1.0853058E2,1.8298887E1,1.2546768E2,5.82846E1,-1.15690365E1,-5.768378E1,3.903999E1,1.6688067E0,-4.781251E0,-8.142012E0,-1.1486716E1,1.324601E1,4.431011E0,2.0527453E0,-3.458788E0,-1.7168669E1,-1.0657046E1,-1.1633415E1,-2.014763E0,-7.711721E0,-1.0061827E0,-1.1338053E1,-2.4980311E0,2.5681238E1,1.7111748E1,8.886619E0,1.3918968E1,4.3715677E0,-7.5091034E-1,1.0704457E1,2.551268E1,1.0955226E1,3.7103333E0,6.207881E0,-2.1982217E0,-3.7413862E0,-9.532164E0,1.0601357E0,1.1979035E1],"categories":[],"categories_nodes":[],"categories_segments":[],"categories_sizes":[],"default_left":[0,0,0,0,0,0,0,0,0,0,0,0,0,0,0,0,0,0,0,0,0,0,0,0,0,0,0,0,0,0,0,0,0,0,0,0,0,0,0,0,0,0,0,0,0,0,0,0,0,0,0,0,0,0,0,0,0,0,0,0,0,0,0],"id":6,"left_children":[1,3,5,7,9,11,13,15,17,19,21,23,25,27,29,31,33,35,37,39,41,43,45,47,49,51,53,55,57,59,61,-1,-1,-1,-1,-1,-1,-1,-1,-1,-1,-1,-1,-1,-1,-1,-1,-1,-1,-1,-1,-1,-1,-1,-1,-1,-1,-1,-1,-1,-1,-1,-1],"loss_changes":[4.6229664E8,3.712019E7,6.426816E7,1.2315582E7,1.3004896E7,4.758568E7,9.153514E6,5.950326E6,1.7820375E6,5.188256E6,3.061244E6,1.2503344E7,5.475893E7,2.531503E6,9.287028E6,1.3511681E6,8.48592E5,6.4915025E5,8.537255E5,3.862112E6,1.61614E6,1.1540488E6,1.315444E6,2.750336E6,6.984192E6,1.114109E7,1.5807552E7,1.6432665E6,6.064552E5,3.938422E6,2.8210425E6,0E0,0E0,0E0,0E0,0E0,0E0,0E0,0E0,0E0,0E0,0E0,0E0,0E0,0E0,0E0,0E0,0E0,0E0,0E0,0E0,0E0,0E0,0E0,0E0,0E0,0E0,0E0,0E0,0E0,0E0,0E0,0E0],"parents":[2147483647,0,0,1,1,2,2,3,3,4,4,5,5,6,6,7,7,8,8,9,9,10,10,11,11,12,12,13,13,14,14,15,15,16,16,17,17,18,18,19,19,20,20,21,21,22,22,23,23,24,24,25,25,26,26,27,27,28,28,29,29,30,30],"right_children":[2,4,6,8,10,12,14,16,18,20,22,24,26,28,30,32,34,36,38,40,42,44,46,48,50,52,54,56,58,60,62,-1,-1,-1,-1,-1,-1,-1,-1,-1,-1,-1,-1,-1,-1,-1,-1,-1,-1,-1,-1,-1,-1,-1,-1,-1,-1,-1,-1,-1,-1,-1,-1],"split_conditions":[8E0,-4.3E0,2.1E1,6E0,6E0,1.4E0,-4.6E0,-1.51E1,-1.47E1,1.28E1,7E-1,-1.65E1,1.92E1,2.3E1,1.4E1,-2.88E1,3E0,-2.8E1,1.046556E6,1.1E1,1.71E1,7E0,1.59E1,-3.02E1,1.6E1,1.046556E6,2.66E1,-1.98E1,-2.56E1,2.3E1,1.82E1,1.6688067E0,-4.781251E0,-8.142012E0,-1.1486716E1,1.324601E1,4.431011E0,2.0527453E0,-3.458788E0,-1.7168669E1,-1.0657046E1,-1.1633415E1,-2.014763E0,-7.711721E0,-1.0061827E0,-1.1338053E1,-2.4980311E0,2.5681238E1,1.7111748E1,8.886619E0,1.3918968E1,4.3715677E0,-7.5091034E-1,1.0704457E1,2.551268E1,1.0955226E1,3.7103333E0,6.207881E0,-2.1982217E0,-3.7413862E0,-9.532164E0,1.0601357E0,1.1979035E1],"split_indices":[0,3,0,0,0,3,3,3,3,3,3,3,3,0,3,4,2,3,6,2,3,0,3,4,0,6,3,4,4,0,3,0,0,0,0,0,0,0,0,0,0,0,0,0,0,0,0,0,0,0,0,0,0,0,0,0,0,0,0,0,0,0,0],"split_type":[0,0,0,0,0,0,0,0,0,0,0,0,0,0,0,0,0,0,0,0,0,0,0,0,0,0,0,0,0,0,0,0,0,0,0,0,0,0,0,0,0,0,0,0,0,0,0,0,0,0,0,0,0,0,0,0,0,0,0,0,0,0,0],"sum_hessian":[6.9542E4,2.3272E4,4.627E4,7.079E3,1.6193E4,3.7572E4,8.698E3,5.274E3,1.805E3,1.2237E4,3.956E3,1.3961E4,2.3611E4,2.304E3,6.394E3,1.845E3,3.429E3,6.82E2,1.123E3,1.0632E4,1.605E3,1.027E3,2.929E3,2.357E3,1.1604E4,1.6983E4,6.628E3,1.516E3,7.88E2,5.166E3,1.228E3,4.2E2,1.425E3,1.16E3,2.269E3,9.7E1,5.85E2,5.47E2,5.76E2,9.619E3,1.013E3,1.405E3,2E2,5.26E2,5.01E2,2.749E3,1.8E2,4.74E2,1.883E3,7.072E3,4.532E3,8.556E3,8.427E3,5.805E3,8.23E2,4.42E2,1.074E3,9.7E1,6.91E2,3.359E3,1.807E3,9.09E2,3.19E2],"tree_param":{"num_deleted":"0","num_feature":"7","num_nodes":"63","size_leaf_vector":"1"}},{"base_weights":[1.9627952E-3,-1.0346869E2,5.2044765E1,-2.3187473E1,-1.1967381E2,6.818324E1,-1.7667065E1,-4.5235218E1,3.7699314E1,-1.3519711E2,-7.152396E1,1.0983725E2,4.354995E1,2.6505749E1,-3.7159893E1,-4.894486E0,-6.2599194E1,6.765377E1,9.623494E0,-9.3238914E1,-1.4373285E2,-2.9602903E1,-9.7167244E1,1.4931201E2,9.002012E1,1.984181E1,1.2406387E2,4.731874E1,-1.4135447E1,-5.563483E1,3.5146576E1,2.7932818E0,-1.9837855E0,-2.3387814E0,-6.9639344E0,1.272755E1,5.235758E0,-2.020335E0,2.5441666E0,-9.905728E0,-2.7545176E0,-1.012341E1,-1.5257459E1,-5.7993875E0,6.1692543E-2,-9.948141E0,7.69282E0,2.1025238E1,1.3534533E1,7.244003E0,1.2080809E1,4.286569E0,-3.4100047E-1,4.1461926E0,1.5267116E1,8.950373E0,2.5788448E0,2.0765905E0,-3.3795838E0,-3.7537212E0,-8.888066E0,1.4673151E0,1.2693728E1],"categories":[],"categories_nodes":[],"categories_segments":[],"categories_sizes":[],"default_left":[0,0,0,0,0,0,0,0,0,0,0,0,0,0,0,0,0,0,0,0,0,0,0,0,0,0,0,0,0,0,0,0,0,0,0,0,0,0,0,0,0,0,0,0,0,0,0,0,0,0,0,0,0,0,0,0,0,0,0,0,0,0,0],"id":7,"left_children":[1,3,5,7,9,11,13,15,17,19,21,23,25,27,29,31,33,35,37,39,41,43,45,47,49,51,53,55,57,59,61,-1,-1,-1,-1,-1,-1,-1,-1,-1,-1,-1,-1,-1,-1,-1,-1,-1,-1,-1,-1,-1,-1,-1,-1,-1,-1,-1,-1,-1,-1,-1,-1],"loss_changes":[3.7448765E8,3.0274624E7,5.205808E7,5.2505535E6,1.446384E7,3.854795E7,7.491286E6,2.0107585E6,8.739849E5,5.230544E6,5.07432E6,1.0908704E7,4.506896E7,2.254053E6,8.06519E6,4.2488034E5,5.524115E5,4.5206475E5,2.5434569E5,9.44438E5,4.555712E6,1.5392345E6,1.188104E6,3.942088E6,5.02384E6,9.765945E6,1.268544E7,1.5980372E6,6.2031706E5,2.889496E6,2.3077605E6,0E0,0E0,0E0,0E0,0E0,0E0,0E0,0E0,0E0,0E0,0E0,0E0,0E0,0E0,0E0,0E0,0E0,0E0,0E0,0E0,0E0,0E0,0E0,0E0,0E0,0E0,0E0,0E0,0E0,0E0,0E0,0E0],"parents":[2147483647,0,0,1,1,2,2,3,3,4,4,5,5,6,6,7,7,8,8,9,9,10,10,11,11,12,12,13,13,14,14,15,15,16,16,17,17,18,18,19,19,20,20,21,21,22,22,23,23,24,24,25,25,26,26,27,27,28,28,29,29,30,30],"right_children":[2,4,6,8,10,12,14,16,18,20,22,24,26,28,30,32,34,36,38,40,42,44,46,48,50,52,54,56,58,60,62,-1,-1,-1,-1,-1,-1,-1,-1,-1,-1,-1,-1,-1,-1,-1,-1,-1,-1,-1,-1,-1,-1,-1,-1,-1,-1,-1,-1,-1,-1,-1,-1],"split_conditions":[8E0,-1.06E1,2.1E1,6E0,6E0,1.4E0,-2.9E0,-2.36E1,3E0,1E0,7E-1,-1.08E1,2.03E1,2.3E1,1.4E1,-3.18E1,1E0,-2.88E1,1.1E1,1.21E1,4E0,7E0,1.84E1,-2.66E1,1.1E1,1.046556E6,7.1E0,-1.72E1,-1.36E1,2.3E1,1.9E1,2.7932818E0,-1.9837855E0,-2.3387814E0,-6.9639344E0,1.272755E1,5.235758E0,-2.020335E0,2.5441666E0,-9.905728E0,-2.7545176E0,-1.012341E1,-1.5257459E1,-5.7993875E0,6.1692543E-2,-9.948141E0,7.69282E0,2.1025238E1,1.3534533E1,7.244003E0,1.2080809E1,4.286569E0,-3.4100047E-1,4.1461926E0,1.5267116E1,8.950373E0,2.5788448E0,2.0765905E0,-3.3795838E0,-3.7537212E0,-8.888066E0,1.4673151E0,1.2693728E1],"split_indices":[0,3,0,0,0,3,3,4,2,0,3,3,3,0,3,4,0,4,2,4,2,0,3,4,2,6,4,4,3,0,3,0,0,0,0,0,0,0,0,0,0,0,0,0,0,0,0,0,0,0,0,0,0,0,0,0,0,0,0,0,0,0,0],"split_type":[0,0,0,0,0,0,0,0,0,0,0,0,0,0,0,0,0,0,0,0,0,0,0,0,0,0,0,0,0,0,0,0,0,0,0,0,0,0,0,0,0,0,0,0,0,0,0,0,0,0,0,0,0,0,0,0,0,0,0,0,0,0,0],"sum_hessian":[6.9542E4,2.3272E4,4.627E4,3.909E3,1.9363E4,3.7572E4,8.698E3,2.87E3,1.039E3,1.4641E4,4.722E3,1.3961E4,2.3611E4,2.663E3,6.035E3,8.64E2,2.006E3,5.02E2,5.37E2,2.477E3,1.2164E4,1.793E3,2.929E3,4.664E3,9.297E3,1.8241E4,5.37E3,1.761E3,9.02E2,4.807E3,1.228E3,2.7E2,5.94E2,3.06E2,1.7E3,1.01E2,4.01E2,1.86E2,3.51E2,2.275E3,2.02E2,2.097E3,1.0067E4,9.24E2,8.69E2,2.891E3,3.8E1,8.67E2,3.797E3,5.92E3,3.377E3,9.165E3,9.076E3,1.382E3,3.988E3,5.94E2,1.167E3,3.25E2,5.77E2,3.114E3,1.693E3,1.005E3,2.23E2],"tree_param":{"num_deleted":"0","num_feature":"7","num_nodes":"63","size_leaf_vector":"1"}},{"base_weights":[2.5108731E-3,-1.0263506E2,4.2584408E1,-5.507595E1,-1.2339369E2,1.0656206E2,2.9954603E1,-1.9469122E1,-7.549138E1,-1.293881E2,-7.602546E1,1.1814054E2,2.1990507E1,-2.1343365E1,5.2314438E1,1.811953E1,-3.2487064E1,-8.8888275E1,-4.3083015E1,-8.099936E1,-1.3636438E2,-8.526024E1,1.7748161E1,1.9666667E2,1.0958433E2,6.203129E1,4.7478456E0,3.0874102E1,-4.7996937E1,4.244022E1,1.7269014E2,5.366219E0,3.2011425E-1,-4.514235E0,-3.390654E-1,-6.3735833E0,-1.0516245E1,-2.4980657E0,-5.9930644E0,-9.479743E0,-4.2085176E0,-1.643857E1,-1.1886452E1,-5.847701E0,-1.0125406E1,-1.5435203E0,8.044159E0,-8.673778E0,2.000733E1,1.28284E1,8.110702E0,9.768683E0,4.5566554E0,2.2810905E0,-2.0620472E0,5.7504315E0,2.546447E-1,-3.2714925E0,-8.448462E0,2.0547318E0,9.434875E0,1.5443007E1,3.0960775E1],"categories":[],"categories_nodes":[],"categories_segments":[],"categories_sizes":[],"default_left":[0,0,0,0,0,0,0,0,0,0,0,0,0,0,0,0,0,0,0,0,0,0,0,0,0,0,0,0,0,0,0,0,0,0,0,0,0,0,0,0,0,0,0,0,0,0,0,0,0,0,0,0,0,0,0,0,0,0,0,0,0,0,0],"id":8,"left_children":[1,3,5,7,9,11,13,15,17,19,21,23,25,27,29,31,33,35,37,39,41,43,45,47,49,51,53,55,57,59,61,-1,-1,-1,-1,-1,-1,-1,-1,-1,-1,-1,-1,-1,-1,-1,-1,-1,-1,-1,-1,-1,-1,-1,-1,-1,-1,-1,-1,-1,-1,-1,-1],"loss_changes":[3.0394224E8,2.0125456E7,3.9712864E7,4.504034E6,4.020752E6,7.931952E6,4.708604E7,1.1064675E6,1.706372E6,4.242032E6,1.384482E6,4.766984E6,6.7423575E5,1.734587E7,3.3974016E7,3.0842738E5,6.18094E5,1.133704E6,3.50452E5,8.49746E5,5.379424E6,6.16924E5,3.008162E5,6.922E5,3.413136E6,1.68144E5,3.1389928E5,3.177266E6,4.598036E6,3.0025904E7,5.36996E6,0E0,0E0,0E0,0E0,0E0,0E0,0E0,0E0,0E0,0E0,0E0,0E0,0E0,0E0,0E0,0E0,0E0,0E0,0E0,0E0,0E0,0E0,0E0,0E0,0E0,0E0,0E0,0E0,0E0,0E0,0E0,0E0],"parents":[2147483647,0,0,1,1,2,2,3,3,4,4,5,5,6,6,7,7,8,8,9,9,10,10,11,11,12,12,13,13,14,14,15,15,16,16,17,17,18,18,19,19,20,20,21,21,22,22,23,23,24,24,25,25,26,26,27,27,28,28,29,29,30,30],"right_children":[2,4,6,8,10,12,14,16,18,20,22,24,26,28,30,32,34,36,38,40,42,44,46,48,50,52,54,56,58,60,62,-1,-1,-1,-1,-1,-1,-1,-1,-1,-1,-1,-1,-1,-1,-1,-1,-1,-1,-1,-1,-1,-1,-1,-1,-1,-1,-1,-1,-1,-1,-1,-1],"split_conditions":[7E0,-4.3E0,3E0,-1.47E1,1.32E1,2.2E1,6E0,-2.76E1,5E0,4E0,1.78E1,-2.66E1,-1.87E1,4E0,2.35E1,7.1E1,5E0,2E0,1.046556E6,5E0,7E0,2E0,1.95E1,2E0,1.050945E6,-2.76E1,1.050945E6,1.7E1,1.9E1,1.1E1,2.87E1,5.366219E0,3.2011425E-1,-4.514235E0,-3.390654E-1,-6.3735833E0,-1.0516245E1,-2.4980657E0,-5.9930644E0,-9.479743E0,-4.2085176E0,-1.643857E1,-1.1886452E1,-5.847701E0,-1.0125406E1,-1.5435203E0,8.044159E0,-8.673778E0,2.000733E1,1.28284E1,8.110702E0,9.768683E0,4.5566554E0,2.2810905E0,-2.0620472E0,5.7504315E0,2.546447E-1,-3.2714925E0,-8.448462E0,2.0547318E0,9.434875E0,1.5443007E1,3.0960775E1],"split_indices":[0,3,2,3,3,0,2,4,0,2,3,4,4,2,3,5,0,0,6,0,2,0,3,1,6,4,6,1,0,2,3,0,0,0,0,0,0,0,0,0,0,0,0,0,0,0,0,0,0,0,0,0,0,0,0,0,0,0,0,0,0,0,0],"split_type":[0,0,0,0,0,0,0,0,0,0,0,0,0,0,0,0,0,0,0,0,0,0,0,0,0,0,0,0,0,0,0,0,0,0,0,0,0,0,0,0,0,0,0,0,0,0,0,0,0,0,0,0,0,0,0,0,0,0,0,0,0,0,0],"sum_hessian":[6.9542E4,2.0391E4,4.9151E4,6.197E3,1.4194E4,8.102E3,4.1049E4,2.259E3,3.938E3,1.2598E4,1.596E3,7.126E3,9.76E2,1.2461E4,2.8588E4,5.81E2,1.678E3,2.785E3,1.153E3,1.589E3,1.1009E4,1.453E3,1.43E2,6.98E2,6.428E3,2.93E2,6.83E2,4.211E3,8.25E3,2.6422E4,2.166E3,1.71E2,4.1E2,1.169E3,5.09E2,1.096E3,1.689E3,5.57E2,5.96E2,1.172E3,4.17E2,4.229E3,6.78E3,5.45E2,9.08E2,9.4E1,4.9E1,8E0,6.9E2,3.878E3,2.55E3,9.1E1,2.02E2,3.99E2,2.84E2,2.17E3,2.041E3,5.816E3,2.434E3,1.8585E4,7.837E3,1.913E3,2.53E2],"tree_param":{"num_deleted":"0","num_feature":"7","num_nodes":"63","size_leaf_vector":"1"}},{"base_weights":[2.611374E-3,-8.463566E1,4.257326E1,-4.0119965E1,-1.04618385E2,5.6601936E1,-1.8024744E1,-5.75107E1,1.09077835E1,-1.1589748E2,-6.975835E1,8.761329E1,3.424589E1,5.274468E-1,-5.500801E1,-2.0499407E1,-7.378186E1,4.0269993E1,-9.307342E0,-9.123241E1,-1.286084E2,-7.6572205E1,1.0597304E1,1.2366175E2,7.242108E1,3.8326478E0,9.171901E1,-7.3958526E0,7.956436E1,1.8900259E0,-6.657688E1,-2.5295734E-1,-4.321811E0,-4.240884E0,-7.9557605E0,8.737716E0,2.6051576E0,-4.2253184E0,1.6428293E0,-1.0253458E1,-4.870201E0,-1.3536171E1,-9.831751E0,-4.4100666E-1,-8.55799E0,-1.1797354E0,3.2211258E0,1.0187243E1,1.5986518E1,3.442501E0,8.509602E0,2.4081094E0,-1.6447552E0,2.968478E0,1.1683632E1,2.7218158E0,-3.714443E0,5.4329104E0,1.6048819E1,5.242813E0,-1.0335536E0,-7.2924433E0,-1.2860839E-1],"categories":[],"categories_nodes":[],"categories_segments":[],"categories_sizes":[],"default_left":[0,0,0,0,0,0,0,0,0,0,0,0,0,0,0,0,0,0,0,0,0,0,0,0,0,0,0,0,0,0,0,0,0,0,0,0,0,0,0,0,0,0,0,0,0,0,0,0,0,0,0,0,0,0,0,0,0,0,0,0,0,0,0],"id":9,"left_children":[1,3,5,7,9,11,13,15,17,19,21,23,25,27,29,31,33,35,37,39,41,43,45,47,49,51,53,55,57,59,61,-1,-1,-1,-1,-1,-1,-1,-1,-1,-1,-1,-1,-1,-1,-1,-1,-1,-1,-1,-1,-1,-1,-1,-1,-1,-1,-1,-1,-1,-1,-1,-1],"loss_changes":[2.5057442E8,2.0698176E7,3.933645E7,6.400628E6,6.307328E6,2.604604E7,5.9685925E6,3.237812E6,1.0889651E6,3.792464E6,2.152064E6,8.610592E6,3.816601E7,3.628983E6,1.91299E6,6.710558E5,6.73598E5,4.9872612E5,9.22342E5,1.98024E6,1.624224E6,2.353976E6,1.4946342E5,3.663688E6,5.330768E6,5.864371E6,1.176978E7,5.424533E6,1.0695268E6,3.0452734E5,1.00077E6,0E0,0E0,0E0,0E0,0E0,0E0,0E0,0E0,0E0,0E0,0E0,0E0,0E0,0E0,0E0,0E0,0E0,0E0,0E0,0E0,0E0,0E0,0E0,0E0,0E0,0E0,0E0,0E0,0E0,0E0,0E0,0E0],"parents":[2147483647,0,0,1,1,2,2,3,3,4,4,5,5,6,6,7,7,8,8,9,9,10,10,11,11,12,12,13,13,14,14,15,15,16,16,17,17,18,18,19,19,20,20,21,21,22,22,23,23,24,24,25,25,26,26,27,27,28,28,29,29,30,30],"right_children":[2,4,6,8,10,12,14,16,18,20,22,24,26,28,30,32,34,36,38,40,42,44,46,48,50,52,54,56,58,60,62,-1,-1,-1,-1,-1,-1,-1,-1,-1,-1,-1,-1,-1,-1,-1,-1,-1,-1,-1,-1,-1,-1,-1,-1,-1,-1,-1,-1,-1,-1,-1,-1],"split_conditions":[8E0,-4.1E0,2.1E1,6E0,6E0,3E0,2.3E1,-1.9E1,3E0,2E0,1.1E1,-1.08E1,1.84E1,1.21E1,3E0,3E0,1E0,-2.42E1,1.1E1,9.6E0,9.6E0,4E0,7E0,1.6E1,1.1E1,1.046556E6,7E0,4E-1,1.9E1,-1.91E1,1.2E1,-2.5295734E-1,-4.321811E0,-4.240884E0,-7.9557605E0,8.737716E0,2.6051576E0,-4.2253184E0,1.6428293E0,-1.0253458E1,-4.870201E0,-1.3536171E1,-9.831751E0,-4.4100666E-1,-8.55799E0,-1.1797354E0,3.2211258E0,1.0187243E1,1.5986518E1,3.442501E0,8.509602E0,2.4081094E0,-1.6447552E0,2.968478E0,1.1683632E1,2.7218158E0,-3.714443E0,5.4329104E0,1.6048819E1,5.242813E0,-1.0335536E0,-7.2924433E0,-1.2860839E-1],"split_indices":[0,3,0,0,0,3,0,4,2,0,2,3,3,4,2,2,0,4,2,4,4,2,0,0,0,6,4,3,3,3,2,0,0,0,0,0,0,0,0,0,0,0,0,0,0,0,0,0,0,0,0,0,0,0,0,0,0,0,0,0,0,0,0],"split_type":[0,0,0,0,0,0,0,0,0,0,0,0,0,0,0,0,0,0,0,0,0,0,0,0,0,0,0,0,0,0,0,0,0,0,0,0,0,0,0,0,0,0,0,0,0,0,0,0,0,0,0,0,0,0,0,0,0,0,0,0,0,0,0],"sum_hessian":[6.9542E4,2.3272E4,4.627E4,7.211E3,1.6061E4,3.7572E4,8.698E3,5.378E3,1.833E3,1.2133E4,3.928E3,1.5738E4,2.1834E4,5.793E3,2.905E3,1.643E3,3.735E3,7.47E2,1.086E3,4.129E3,8.004E3,3.621E3,3.07E2,4.664E3,1.1074E4,1.4279E4,7.555E3,5.266E3,5.27E2,4.91E2,2.414E3,9.18E2,7.25E2,5.82E2,3.153E3,1.72E2,5.75E2,4.76E2,6.1E2,3.261E3,8.68E2,6.542E3,1.462E3,4.02E2,3.219E3,1.51E2,1.56E2,2.914E3,1.75E3,2.771E3,8.303E3,7.145E3,7.134E3,2.178E3,5.377E3,2.434E3,2.832E3,4.03E2,1.24E2,9.5E1,3.96E2,2.2E3,2.14E2],"tree_param":{"num_deleted":"0","num_feature":"7","num_nodes":"63","size_leaf_vector":"1"}},{"base_weights":[2.6012529E-3,-7.61744E1,3.831747E1,-4.1301193E1,-9.700979E1,4.8302246E1,-3.1225105E1,-5.673014E1,4.2690206E0,-1.06746086E2,-6.687385E1,1.0144896E2,3.7840935E1,3.7759535E0,-4.5595234E1,-2.3791868E1,-7.2101906E1,3.4920124E1,-1.3474791E1,-1.1609731E2,-7.1882935E1,-7.5148964E1,-2.1253778E1,1.7117249E2,9.406474E1,-1.0663146E1,5.8988785E1,3.884918E1,-1.0472039E1,-6.2397957E1,8.433134E0,5.3741115E-1,-3.683981E0,-8.275958E0,-5.167693E0,7.8689995E0,2.2959263E0,-4.2726755E0,1.4366078E0,-5.0358844E0,-1.2006728E1,-8.405025E0,-1.5997471E0,-6.718966E-1,-8.212967E0,1.5053564E0,-5.481127E0,7.386627E0,1.8099432E1,1.1098013E1,6.836948E0,3.310278E0,-3.2995205E0,5.142647E0,1.5712471E1,8.795873E0,2.6629143E0,1.2058984E0,-3.1225564E0,-4.1055355E0,-8.627627E0,3.0138084E-1,1.992022E1],"categories":[],"categories_nodes":[],"categories_segments":[],"categories_sizes":[],"default_left":[0,0,0,0,0,0,0,0,0,0,0,0,0,0,0,0,0,0,0,0,0,0,0,0,0,0,0,0,0,0,0,0,0,0,0,0,0,0,0,0,0,0,0,0,0,0,0,0,0,0,0,0,0,0,0,0,0,0,0,0,0,0,0],"id":10,"left_children":[1,3,5,7,9,11,13,15,17,19,21,23,25,27,29,31,33,35,37,39,41,43,45,47,49,51,53,55,57,59,61,-1,-1,-1,-1,-1,-1,-1,-1,-1,-1,-1,-1,-1,-1,-1,-1,-1,-1,-1,-1,-1,-1,-1,-1,-1,-1,-1,-1,-1,-1,-1,-1],"loss_changes":[2.0297891E8,1.6906064E7,3.2130568E7,6.121434E6,4.267312E6,2.24924E7,2.9224255E6,3.291386E6,1.1986104E6,3.580728E6,1.342343E6,3.409736E6,3.468045E7,8.4593825E5,3.739852E6,7.8832925E5,9.6093E5,4.212018E5,1.1375164E6,2.258992E6,1.583679E6,1.438728E6,6.684992E5,5.94474E5,2.608544E6,1.0034908E7,1.746476E7,2.9111675E5,5.633647E5,1.597701E6,1.01049475E6,0E0,0E0,0E0,0E0,0E0,0E0,0E0,0E0,0E0,0E0,0E0,0E0,0E0,0E0,0E0,0E0,0E0,0E0,0E0,0E0,0E0,0E0,0E0,0E0,0E0,0E0,0E0,0E0,0E0,0E0,0E0,0E0],"parents":[2147483647,0,0,1,1,2,2,3,3,4,4,5,5,6,6,7,7,8,8,9,9,10,10,11,11,12,12,13,13,14,14,15,15,16,16,17,17,18,18,19,19,20,20,21,21,22,22,23,23,24,24,25,25,26,26,27,27,28,28,29,29,30,30],"right_children":[2,4,6,8,10,12,14,16,18,20,22,24,26,28,30,32,34,36,38,40,42,44,46,48,50,52,54,56,58,60,62,-1,-1,-1,-1,-1,-1,-1,-1,-1,-1,-1,-1,-1,-1,-1,-1,-1,-1,-1,-1,-1,-1,-1,-1,-1,-1,-1,-1,-1,-1,-1,-1],"split_conditions":[8E0,-2.2E0,2.2E1,6E0,6E0,3E0,-3.6E0,-1.4E1,3E0,9.6E0,1E1,-2.66E1,6E0,-1.9E1,9.5E0,-2.56E1,1.1E1,-2.42E1,1.1E1,3E0,1.54E1,4E0,1.046556E6,4E0,1.050945E6,4E0,2.43E1,-3.02E1,1.046556E6,1.046556E6,2.11E1,5.3741115E-1,-3.683981E0,-8.275958E0,-5.167693E0,7.8689995E0,2.2959263E0,-4.2726755E0,1.4366078E0,-5.0358844E0,-1.2006728E1,-8.405025E0,-1.5997471E0,-6.718966E-1,-8.212967E0,1.5053564E0,-5.481127E0,7.386627E0,1.8099432E1,1.1098013E1,6.836948E0,3.310278E0,-3.2995205E0,5.142647E0,1.5712471E1,8.795873E0,2.6629143E0,1.2058984E0,-3.1225564E0,-4.1055355E0,-8.627627E0,3.0138084E-1,1.992022E1],"split_indices":[0,3,0,0,0,2,3,3,2,4,2,4,2,4,4,4,2,4,2,2,3,2,6,1,6,2,3,4,6,6,3,0,0,0,0,0,0,0,0,0,0,0,0,0,0,0,0,0,0,0,0,0,0,0,0,0,0,0,0,0,0,0,0],"split_type":[0,0,0,0,0,0,0,0,0,0,0,0,0,0,0,0,0,0,0,0,0,0,0,0,0,0,0,0,0,0,0,0,0,0,0,0,0,0,0,0,0,0,0,0,0,0,0,0,0,0,0,0,0,0,0,0,0,0,0,0,0,0,0],"sum_hessian":[6.9542E4,2.3272E4,4.627E4,8.705E3,1.4567E4,4.0461E4,5.809E3,6.503E3,2.202E3,1.1008E4,3.559E3,6.653E3,3.3808E4,1.691E3,4.118E3,2.07E3,4.433E3,8.07E2,1.395E3,8.678E3,2.33E3,3.012E3,5.47E2,6.35E2,6.018E3,1.0265E4,2.3543E4,4.88E2,1.203E3,3.141E3,9.77E2,6.4E2,1.43E3,2.911E3,1.522E3,1.72E2,6.35E2,6.8E2,7.15E2,4.95E2,8.183E3,1.913E3,4.17E2,2.79E2,2.733E3,2.63E2,2.84E2,5.9E1,5.76E2,3.627E3,2.391E3,3.468E3,6.797E3,2.186E4,1.683E3,9.6E1,3.92E2,5.77E2,6.26E2,1.66E3,1.481E3,9.51E2,2.6E1],"tree_param":{"num_deleted":"0","num_feature":"7","num_nodes":"63","size_leaf_vector":"1"}},{"base_weights":[2.7926285E-3,-6.855907E1,3.448746E1,-1.3045517E1,-7.940164E1,4.8467422E1,-7.16206E0,-3.2837513E1,1.6846916E1,-8.91368E1,-4.9172054E1,7.5868744E1,2.911475E1,-1.3247643E1,8.6727646E1,-7.141556E0,-4.926971E1,2.8202803E0,4.4591515E1,-9.524595E1,-4.757071E1,-2.4721739E1,-6.971477E1,5.6272697E1,1.1534153E2,7.020182E-1,7.210299E1,1.6447296E1,-3.699554E1,6.415635E1,1.6301546E2,1.9076084E0,-2.4769983E0,-3.1462185E0,-6.5849786E0,4.202017E0,-5.6370693E-1,7.0461664E0,2.0505564E0,-5.82206E0,-1.04552555E1,-1.9934663E0,-5.3450756E0,-3.9808849E-1,-4.9443164E0,-7.5020065E0,9.583538E-2,1.0918914E1,4.974921E0,9.473033E0,1.5216853E1,-4.152272E0,1.0780104E0,6.2566867E0,1.9859037E1,4.078339E0,-6.2580836E-1,-5.0889378E0,-3.1403208E-1,2.6733062E0,8.955893E0,1.2016647E1,2.198506E1],"categories":[],"categories_nodes":[],"categories_segments":[],"categories_sizes":[],"default_left":[0,0,0,0,0,0,0,0,0,0,0,0,0,0,0,0,0,0,0,0,0,0,0,0,0,0,0,0,0,0,0,0,0,0,0,0,0,0,0,0,0,0,0,0,0,0,0,0,0,0,0,0,0,0,0,0,0,0,0,0,0,0,0],"id":11,"left_children":[1,3,5,7,9,11,13,15,17,19,21,23,25,27,29,31,33,35,37,39,41,43,45,47,49,51,53,55,57,59,61,-1,-1,-1,-1,-1,-1,-1,-1,-1,-1,-1,-1,-1,-1,-1,-1,-1,-1,-1,-1,-1,-1,-1,-1,-1,-1,-1,-1,-1,-1,-1,-1],"loss_changes":[1.6442517E8,1.40072E7,2.694204E7,2.2511175E6,5.725448E6,1.8368576E7,6.645653E6,9.66158E5,5.898459E5,3.734888E6,2.381574E6,1.108488E7,2.4800744E7,7.7027205E6,1.208657E6,4.1365762E5,4.1009775E5,3.3441622E5,3.1571675E5,4.417624E6,3.05899E5,1.1114309E6,9.66674E5,3.302962E6,3.59562E6,5.2031545E6,9.733664E6,2.6823825E6,2.8545695E6,5.185605E5,3.656695E5,0E0,0E0,0E0,0E0,0E0,0E0,0E0,0E0,0E0,0E0,0E0,0E0,0E0,0E0,0E0,0E0,0E0,0E0,0E0,0E0,0E0,0E0,0E0,0E0,0E0,0E0,0E0,0E0,0E0,0E0,0E0,0E0],"parents":[2147483647,0,0,1,1,2,2,3,3,4,4,5,5,6,6,7,7,8,8,9,9,10,10,11,11,12,12,13,13,14,14,15,15,16,16,17,17,18,18,19,19,20,20,21,21,22,22,23,23,24,24,25,25,26,26,27,27,28,28,29,29,30,30],"right_children":[2,4,6,8,10,12,14,16,18,20,22,24,26,28,30,32,34,36,38,40,42,44,46,48,50,52,54,56,58,60,62,-1,-1,-1,-1,-1,-1,-1,-1,-1,-1,-1,-1,-1,-1,-1,-1,-1,-1,-1,-1,-1,-1,-1,-1,-1,-1,-1,-1,-1,-1,-1,-1],"split_conditions":[8E0,-1.08E1,2E1,5E0,6E0,3E0,1.8E1,2E0,7E0,1.1E1,2.6E0,1.6E1,1.76E1,4E-1,1.57E1,-2.2E1,7.9E1,-2.76E1,3E0,4E0,1E0,1.046556E6,1.59E1,-1.86E1,1.1E1,1E1,2.74E1,2.2E1,8.7E0,1.07E1,2.11E1,1.9076084E0,-2.4769983E0,-3.1462185E0,-6.5849786E0,4.202017E0,-5.6370693E-1,7.0461664E0,2.0505564E0,-5.82206E0,-1.04552555E1,-1.9934663E0,-5.3450756E0,-3.9808849E-1,-4.9443164E0,-7.5020065E0,9.583538E-2,1.0918914E1,4.974921E0,9.473033E0,1.5216853E1,-4.152272E0,1.0780104E0,6.2566867E0,1.9859037E1,4.078339E0,-6.2580836E-1,-5.0889378E0,-3.1403208E-1,2.6733062E0,8.955893E0,1.2016647E1,2.198506E1],"split_indices":[0,3,0,0,0,3,3,0,0,2,3,0,3,3,4,4,5,4,2,2,0,6,3,3,2,0,3,0,4,4,3,0,0,0,0,0,0,0,0,0,0,0,0,0,0,0,0,0,0,0,0,0,0,0,0,0,0,0,0,0,0,0,0],"split_type":[0,0,0,0,0,0,0,0,0,0,0,0,0,0,0,0,0,0,0,0,0,0,0,0,0,0,0,0,0,0,0,0,0,0,0,0,0,0,0,0,0,0,0,0,0,0,0,0,0,0,0,0,0,0,0,0,0,0,0,0,0,0,0],"sum_hessian":[6.9542E4,2.3272E4,4.627E4,3.803E3,1.9469E4,3.4642E4,1.1628E4,2.288E3,1.515E3,1.4725E4,4.744E3,1.4338E4,2.0304E4,1.0921E4,7.07E2,8.93E2,1.395E3,1.007E3,5.08E2,1.2837E4,1.888E3,2.167E3,2.577E3,9.583E3,4.755E3,1.2225E4,8.079E3,4.853E3,6.068E3,5.47E2,1.6E2,3.59E2,5.34E2,6.74E2,7.21E2,1.78E2,8.29E2,2.44E2,2.64E2,2.58E3,1.0257E4,3.32E2,1.556E3,1.179E3,9.88E2,2.397E3,1.8E2,1.05E3,8.533E3,3.051E3,1.704E3,2.355E3,9.87E3,7.514E3,5.65E2,2.342E3,2.511E3,4.302E3,1.766E3,2.22E2,3.25E2,9.3E1,6.7E1],"tree_param":{"num_deleted":"0","num_feature":"7","num_nodes":"63","size_leaf_vector":"1"}},{"base_weights":[3.5542327E-3,-6.1704647E1,3.1041027E1,-1.0968464E1,-7.169528E1,4.15568E1,-1.4382601E1,-2.8897089E1,1.9514137E1,-8.259078E1,-2.5787033E1,8.615013E1,3.177606E1,6.5019506E-1,-4.435013E1,6.4203515E0,-3.9039673E1,5.7071414E0,4.70287E1,-8.954322E1,-4.2856594E1,-4.4151222E1,5.4228506E0,6.7029E1,1.1734205E2,2.440907E1,1.0786377E2,5.840433E1,-6.709651E0,3.638074E0,-5.4108242E1,1.5951488E0,-4.1306663E0,-5.962689E-1,-4.706369E0,3.2557755E0,-5.402302E-1,1.0795099E1,3.9265885E0,-5.225211E0,-9.59811E0,-4.814667E0,8.007503E0,-2.3049374E0,-5.8847923E0,-7.7740306E-1,3.2092915E0,1.55155945E1,6.2132206E0,1.4464179E1,8.255243E0,1.6238043E0,7.9988403E0,8.038008E0,1.7100542E1,1.01295E1,4.644153E0,-1.6056212E0,5.7651424E0,4.3179746E0,-5.932804E-1,-6.2523065E0,-1.8209337E0],"categories":[],"categories_nodes":[],"categories_segments":[],"categories_sizes":[],"default_left":[0,0,0,0,0,0,0,0,0,0,0,0,0,0,0,0,0,0,0,0,0,0,0,0,0,0,0,0,0,0,0,0,0,0,0,0,0,0,0,0,0,0,0,0,0,0,0,0,0,0,0,0,0,0,0,0,0,0,0,0,0,0,0],"id":12,"left_children":[1,3,5,7,9,11,13,15,17,19,21,23,25,27,29,31,33,35,37,39,41,43,45,47,49,51,53,55,57,59,61,-1,-1,-1,-1,-1,-1,-1,-1,-1,-1,-1,-1,-1,-1,-1,-1,-1,-1,-1,-1,-1,-1,-1,-1,-1,-1,-1,-1,-1,-1,-1,-1],"loss_changes":[1.33195304E8,1.1795984E7,2.2102616E7,2.0937015E6,9.723632E6,1.6384948E7,3.9188915E6,8.642535E5,5.3880044E5,4.337144E6,2.138641E6,4.022772E6,1.7270892E7,2.4631985E6,1.361002E6,2.4584605E5,4.97098E5,2.8236328E5,2.1992931E5,3.205528E6,1.5268995E6,7.27133E5,4.8701244E5,1.799372E6,2.426064E6,1.2758678E7,4.70645E6,3.3137125E5,3.092917E6,1.8645283E5,7.283915E5,0E0,0E0,0E0,0E0,0E0,0E0,0E0,0E0,0E0,0E0,0E0,0E0,0E0,0E0,0E0,0E0,0E0,0E0,0E0,0E0,0E0,0E0,0E0,0E0,0E0,0E0,0E0,0E0,0E0,0E0,0E0,0E0],"parents":[2147483647,0,0,1,1,2,2,3,3,4,4,5,5,6,6,7,7,8,8,9,9,10,10,11,11,12,12,13,13,14,14,15,15,16,16,17,17,18,18,19,19,20,20,21,21,22,22,23,23,24,24,25,25,26,26,27,27,28,28,29,29,30,30],"right_children":[2,4,6,8,10,12,14,16,18,20,22,24,26,28,30,32,34,36,38,40,42,44,46,48,50,52,54,56,58,60,62,-1,-1,-1,-1,-1,-1,-1,-1,-1,-1,-1,-1,-1,-1,-1,-1,-1,-1,-1,-1,-1,-1,-1,-1,-1,-1,-1,-1,-1,-1,-1,-1],"split_conditions":[8E0,3E0,2.1E1,5E0,1.1E1,-7E0,2.3E1,-2.2E1,7E0,1.28E1,5E0,1.6E1,2.32E1,-1.33E1,3E0,2.2E1,1E0,-2.02E1,-2.88E1,4E0,1.88E1,2E0,7E0,-3.18E1,1.9E1,1.1E1,1.42E1,-2.76E1,1.53E1,-1.91E1,1.1E1,1.5951488E0,-4.1306663E0,-5.962689E-1,-4.706369E0,3.2557755E0,-5.402302E-1,1.0795099E1,3.9265885E0,-5.225211E0,-9.59811E0,-4.814667E0,8.007503E0,-2.3049374E0,-5.8847923E0,-7.7740306E-1,3.2092915E0,1.55155945E1,6.2132206E0,1.4464179E1,8.255243E0,1.6238043E0,7.9988403E0,8.038008E0,1.7100542E1,1.01295E1,4.644153E0,-1.6056212E0,5.7651424E0,4.3179746E0,-5.932804E-1,-6.2523065E0,-1.8209337E0],"split_indices":[0,2,0,0,2,3,0,4,0,3,0,0,3,3,2,1,0,4,4,2,3,0,0,4,0,2,4,4,3,3,2,0,0,0,0,0,0,0,0,0,0,0,0,0,0,0,0,0,0,0,0,0,0,0,0,0,0,0,0,0,0,0,0],"split_type":[0,0,0,0,0,0,0,0,0,0,0,0,0,0,0,0,0,0,0,0,0,0,0,0,0,0,0,0,0,0,0,0,0,0,0,0,0,0,0,0,0,0,0,0,0,0,0,0,0,0,0,0,0,0,0,0,0,0,0,0,0,0,0],"sum_hessian":[6.9542E4,2.3272E4,4.627E4,3.829E3,1.9443E4,3.7572E4,8.698E3,2.411E3,1.418E3,1.5713E4,3.73E3,6.757E3,3.0815E4,5.793E3,2.905E3,5.38E2,1.873E3,9.45E2,4.73E2,1.3372E4,2.341E3,2.348E3,1.382E3,4.191E3,2.566E3,2.8096E4,2.719E3,6.54E2,5.139E3,4.91E2,2.414E3,4.49E2,8.9E1,3.66E2,1.507E3,2.76E2,6.69E2,5.2E1,4.21E2,1.97E3,1.1402E4,2.245E3,9.6E1,9.65E2,1.383E3,9.25E2,4.57E2,2.19E2,3.972E3,1.436E3,1.13E3,2.4496E4,3.6E3,1.896E3,8.23E2,1.41E2,5.13E2,4.488E3,6.51E2,9.5E1,3.96E2,1.955E3,4.59E2],"tree_param":{"num_deleted":"0","num_feature":"7","num_nodes":"63","size_leaf_vector":"1"}},{"base_weights":[4.4466904E-3,-6.1352486E1,2.5459984E1,-1.7240303E1,-7.0041336E1,7.0420746E1,1.6584406E1,1.3169738E1,-2.620538E1,-7.944461E1,-3.0491156E1,7.942361E1,2.9023586E1,-2.15637E1,3.3212658E1,-2.9619938E1,2.3224775E1,-3.5138485E1,-2.9180975E0,-8.89066E1,-5.1308704E1,-3.9739605E1,-6.997526E0,6.131966E1,1.1202301E2,5.945864E1,1.7561247E1,1.6010445E1,-4.0742073E1,2.0585968E1,7.7475464E1,-1.0327372E1,-2.285353E0,3.9109986E0,-1.2389708E0,-5.368E-1,-4.2360387E0,9.077862E-1,-2.147397E0,-5.4192157E0,-9.587556E0,-5.8426704E0,-6.477088E-2,-2.074683E0,-5.296741E0,-7.37029E-2,-2.9291134E0,1.3207374E1,5.6936054E0,1.2483747E1,6.10396E0,7.584307E0,2.2906973E0,3.9828744E0,-3.8697144E-1,3.726158E0,-6.5910333E-1,-1.8886967E0,-6.235553E0,-2.152173E-1,6.2397614E0,6.8627253E0,1.8054998E1],"categories":[],"categories_nodes":[],"categories_segments":[],"categories_sizes":[],"default_left":[0,0,0,0,0,0,0,0,0,0,0,0,0,0,0,0,0,0,0,0,0,0,0,0,0,0,0,0,0,0,0,0,0,0,0,0,0,0,0,0,0,0,0,0,0,0,0,0,0,0,0,0,0,0,0,0,0,0,0,0,0,0,0],"id":13,"left_children":[1,3,5,7,9,11,13,15,17,19,21,23,25,27,29,31,33,35,37,39,41,43,45,47,49,51,53,55,57,59,61,-1,-1,-1,-1,-1,-1,-1,-1,-1,-1,-1,-1,-1,-1,-1,-1,-1,-1,-1,-1,-1,-1,-1,-1,-1,-1,-1,-1,-1,-1,-1,-1],"loss_changes":[1.0861894E8,7.81472E6,1.9613076E7,9.1555844E5,6.333288E6,3.01762E6,2.6040224E7,3.2983053E5,5.3931325E5,3.659448E6,7.1109575E5,3.920768E6,5.0444962E5,8.980905E6,1.5976586E7,7.040206E4,3.512456E5,4.02682E5,1.6046369E5,2.486128E6,1.249819E6,5.89047E5,1.2921936E5,1.320267E6,1.544026E6,2.3541838E5,5.0313747E5,2.0232988E6,3.8963E6,2.114888E7,5.774408E6,0E0,0E0,0E0,0E0,0E0,0E0,0E0,0E0,0E0,0E0,0E0,0E0,0E0,0E0,0E0,0E0,0E0,0E0,0E0,0E0,0E0,0E0,0E0,0E0,0E0,0E0,0E0,0E0,0E0,0E0,0E0,0E0],"parents":[2147483647,0,0,1,1,2,2,3,3,4,4,5,5,6,6,7,7,8,8,9,9,10,10,11,11,12,12,13,13,14,14,15,15,16,16,17,17,18,18,19,19,20,20,21,21,22,22,23,23,24,24,25,25,26,26,27,27,28,28,29,29,30,30],"right_children":[2,4,6,8,10,12,14,16,18,20,22,24,26,28,30,32,34,36,38,40,42,44,46,48,50,52,54,56,58,60,62,-1,-1,-1,-1,-1,-1,-1,-1,-1,-1,-1,-1,-1,-1,-1,-1,-1,-1,-1,-1,-1,-1,-1,-1,-1,-1,-1,-1,-1,-1,-1,-1],"split_conditions":[7E0,3E0,3E0,-2.2E1,1.1E1,2.1E1,6E0,1.00292E6,5E0,8.6E0,5E0,1.6E1,-1.98E1,4E0,1.88E1,3E0,1.8E1,1E0,1.050945E6,4E0,1.57E1,2E0,2.5E1,-3.02E1,2E1,1.7E1,1.046556E6,1.7E1,1.046556E6,1.1E1,2.74E1,-1.0327372E1,-2.285353E0,3.9109986E0,-1.2389708E0,-5.368E-1,-4.2360387E0,9.077862E-1,-2.147397E0,-5.4192157E0,-9.587556E0,-5.8426704E0,-6.477088E-2,-2.074683E0,-5.296741E0,-7.37029E-2,-2.9291134E0,1.3207374E1,5.6936054E0,1.2483747E1,6.10396E0,7.584307E0,2.2906973E0,3.9828744E0,-3.8697144E-1,3.726158E0,-6.5910333E-1,-1.8886967E0,-6.235553E0,-2.152173E-1,6.2397614E0,6.8627253E0,1.8054998E1],"split_indices":[0,2,2,4,2,0,2,6,0,4,0,0,4,2,3,1,1,0,6,2,3,0,1,4,0,1,6,1,6,2,3,0,0,0,0,0,0,0,0,0,0,0,0,0,0,0,0,0,0,0,0,0,0,0,0,0,0,0,0,0,0,0,0],"split_type":[0,0,0,0,0,0,0,0,0,0,0,0,0,0,0,0,0,0,0,0,0,0,0,0,0,0,0,0,0,0,0,0,0,0,0,0,0,0,0,0,0,0,0,0,0,0,0,0,0,0,0,0,0,0,0,0,0,0,0,0,0,0,0],"sum_hessian":[6.9542E4,2.0391E4,4.9151E4,3.356E3,1.7035E4,8.102E3,4.1049E4,7.64E2,2.592E3,1.3762E4,3.273E3,6.654E3,1.448E3,1.2461E4,2.8588E4,1.45E2,6.19E2,1.873E3,7.19E2,1.0297E4,3.465E3,2.348E3,9.25E2,4.28E3,2.374E3,3.95E2,1.053E3,4.211E3,8.25E3,2.2244E4,6.344E3,1.1E1,1.34E2,4.28E2,1.91E2,3.66E2,1.507E3,4.37E2,2.82E2,1.723E3,8.574E3,3.038E3,4.27E2,9.65E2,1.383E3,7.23E2,2.02E2,2.48E2,4.032E3,1.896E3,4.78E2,2.72E2,1.23E2,5.16E2,5.37E2,2.17E3,2.041E3,4.103E3,4.147E3,1.4409E4,7.835E3,5.844E3,5E2],"tree_param":{"num_deleted":"0","num_feature":"7","num_nodes":"63","size_leaf_vector":"1"}},{"base_weights":[4.425374E-3,-5.0338383E1,2.5325428E1,-8.553595E0,-5.8499603E1,3.6358448E1,-7.5443163E0,-1.9497253E1,2.1415495E1,-6.5974815E1,-3.5288113E1,5.303296E0,4.674226E1,-1.32932825E1,6.3654957E1,6.73898E0,-2.7321161E1,3.2297375E1,-1.1965771E1,-3.3785385E1,-7.2506714E1,-4.492354E1,-2.0723984E0,3.0997738E1,-1.0720688E1,6.91465E1,3.10079E1,3.3307396E1,-2.3455843E1,1.4211523E1,8.839483E1,5.1189837E0,-1.3777308E-1,1.8422367E-1,-3.2694805E0,6.037439E0,1.6154507E0,1.7844276E0,-6.4575133E0,-4.2359157E0,-8.8320655E-1,-7.719948E0,-4.0255785E0,-8.221421E-2,-5.7398396E0,2.0669377E0,-2.718276E0,5.2637944E0,1.8278893E0,-2.1780794E0,3.0032883E0,5.2835307E0,8.799537E0,1.6311283E0,9.679646E0,4.907009E0,9.1438687E-1,2.2945826E-1,-4.099067E0,3.7415847E-1,5.5318036E0,6.694127E0,1.3445312E1],"categories":[],"categories_nodes":[],"categories_segments":[],"categories_sizes":[],"default_left":[0,0,0,0,0,0,0,0,0,0,0,0,0,0,0,0,0,0,0,0,0,0,0,0,0,0,0,0,0,0,0,0,0,0,0,0,0,0,0,0,0,0,0,0,0,0,0,0,0,0,0,0,0,0,0,0,0,0,0,0,0,0,0],"id":14,"left_children":[1,3,5,7,9,11,13,15,17,19,21,23,25,27,29,31,33,35,37,39,41,43,45,47,49,51,53,55,57,59,61,-1,-1,-1,-1,-1,-1,-1,-1,-1,-1,-1,-1,-1,-1,-1,-1,-1,-1,-1,-1,-1,-1,-1,-1,-1,-1,-1,-1,-1,-1,-1,-1],"loss_changes":[8.864985E7,7.935936E6,1.678057E7,1.2480212E6,3.375932E6,1.1171108E7,4.760854E6,5.722711E5,3.7017584E5,3.093812E6,1.518533E6,3.574949E6,9.149888E6,5.096999E6,1.0617252E6,2.3133992E5,3.3652462E5,3.4711556E5,3.9479247E5,5.3149075E5,1.849516E6,2.0234365E6,6.1044775E5,9.1695825E5,2.4112048E6,3.288116E6,1.4746078E7,7.335115E5,3.9893565E6,1.2503438E5,5.631175E5,0E0,0E0,0E0,0E0,0E0,0E0,0E0,0E0,0E0,0E0,0E0,0E0,0E0,0E0,0E0,0E0,0E0,0E0,0E0,0E0,0E0,0E0,0E0,0E0,0E0,0E0,0E0,0E0,0E0,0E0,0E0,0E0],"parents":[2147483647,0,0,1,1,2,2,3,3,4,4,5,5,6,6,7,7,8,8,9,9,10,10,11,11,12,12,13,13,14,14,15,15,16,16,17,17,18,18,19,19,20,20,21,21,22,22,23,23,24,24,25,25,26,26,27,27,28,28,29,29,30,30],"right_children":[2,4,6,8,10,12,14,16,18,20,22,24,26,28,30,32,34,36,38,40,42,44,46,48,50,52,54,56,58,60,62,-1,-1,-1,-1,-1,-1,-1,-1,-1,-1,-1,-1,-1,-1,-1,-1,-1,-1,-1,-1,-1,-1,-1,-1,-1,-1,-1,-1,-1,-1,-1,-1],"split_conditions":[8E0,-1.08E1,2E1,6E0,6E0,1.1E1,1.73E1,-2.56E1,2.4E1,1E0,1E1,-2E-1,3.8E0,3E0,1.08E1,1E0,1E0,7.7E1,1.2E1,7.6E0,1.1E1,4E0,1.046556E6,-1.2E1,1.74E1,1.6E1,1.2E1,1.050945E6,1.026499E6,7E0,2.06E1,5.1189837E0,-1.3777308E-1,1.8422367E-1,-3.2694805E0,6.037439E0,1.6154507E0,1.7844276E0,-6.4575133E0,-4.2359157E0,-8.8320655E-1,-7.719948E0,-4.0255785E0,-8.221421E-2,-5.7398396E0,2.0669377E0,-2.718276E0,5.2637944E0,1.8278893E0,-2.1780794E0,3.0032883E0,5.2835307E0,8.799537E0,1.6311283E0,9.679646E0,4.907009E0,9.1438687E-1,2.2945826E-1,-4.099067E0,3.7415847E-1,5.5318036E0,6.694127E0,1.3445312E1],"split_indices":[0,3,0,0,0,0,3,4,1,0,2,3,3,2,4,0,0,5,2,4,2,2,6,3,3,0,4,6,6,2,3,0,0,0,0,0,0,0,0,0,0,0,0,0,0,0,0,0,0,0,0,0,0,0,0,0,0,0,0,0,0,0,0],"split_type":[0,0,0,0,0,0,0,0,0,0,0,0,0,0,0,0,0,0,0,0,0,0,0,0,0,0,0,0,0,0,0,0,0,0,0,0,0,0,0,0,0,0,0,0,0,0,0,0,0,0,0,0,0,0,0,0,0,0,0,0,0,0,0],"sum_hessian":[6.9542E4,2.3272E4,4.627E4,3.803E3,1.9469E4,3.4642E4,1.1628E4,2.786E3,1.017E3,1.4725E4,4.744E3,8.681E3,2.5961E4,1.076E4,8.68E2,6.4E2,2.146E3,7.67E2,2.5E2,2.485E3,1.224E4,3.677E3,1.067E3,3.334E3,5.347E3,1.0709E4,1.5252E4,1.926E3,8.834E3,2.9E2,5.78E2,9.8E1,5.42E2,3.34E2,1.812E3,2.79E2,4.88E2,1.6E2,9E1,1.849E3,6.36E2,1.0684E4,1.556E3,8.11E2,2.866E3,5.6E2,5.07E2,1.233E3,2.101E3,4.206E3,1.141E3,5.743E3,4.966E3,1.2468E4,2.784E3,1.165E3,7.61E2,3.579E3,5.255E3,2.32E2,5.8E1,3.96E2,1.82E2],"tree_param":{"num_deleted":"0","num_feature":"7","num_nodes":"63","size_leaf_vector":"1"}},{"base_weights":[4.608607E-3,-4.1453583E1,2.5009499E1,-1.2360218E0,-4.9371933E1,3.665418E1,-6.787462E0,-1.9143805E1,2.1570107E1,-5.7780598E1,-1.3960014E1,7.983708E1,3.0321918E1,4.207246E0,-3.979195E1,-1.9789219E0,-3.0451904E1,-6.6956276E1,2.4502789E1,-6.2245144E1,-5.0505986E0,-3.238127E1,9.462873E0,6.5793785E1,1.1540178E2,2.4120571E1,8.535801E1,6.901933E-2,8.664412E1,-3.0265749E0,-4.7265564E1,2.6877196E0,-1.0254029E0,-1.4828277E0,-3.8927987E0,-1.5814636E1,2.6393688E0,8.981714E-1,3.987929E0,-7.389695E0,-4.694321E0,-1.9429369E0,5.050772E0,-3.6306772E-1,-3.9628289E0,1.9098771E0,-2.4808216E0,7.7062287E0,2.7210476E0,1.56181E1,9.945307E0,4.423235E0,3.6267552E-1,7.5824637E0,2.6759268E1,4.126172E0,-9.8081416E-1,6.3484926E0,1.4548408E1,2.8282049E0,-1.1186302E0,-5.761034E0,-1.9027519E0],"categories":[],"categories_nodes":[],"categories_segments":[],"categories_sizes":[],"default_left":[0,0,0,0,0,0,0,0,0,0,0,0,0,0,0,0,0,0,0,0,0,0,0,0,0,0,0,0,0,0,0,0,0,0,0,0,0,0,0,0,0,0,0,0,0,0,0,0,0,0,0,0,0,0,0,0,0,0,0,0,0,0,0],"id":15,"left_children":[1,3,5,7,9,11,13,15,17,19,21,23,25,27,29,31,33,35,37,39,41,43,45,47,49,51,53,55,57,59,61,-1,-1,-1,-1,-1,-1,-1,-1,-1,-1,-1,-1,-1,-1,-1,-1,-1,-1,-1,-1,-1,-1,-1,-1,-1,-1,-1,-1,-1,-1,-1,-1],"loss_changes":[7.209331E7,8.33204E6,1.6062362E7,1.7586058E6,6.50838E6,8.680016E6,4.2200375E6,4.6811438E5,4.933605E5,4.158296E6,1.8107928E6,2.020154E6,9.449504E6,2.9761208E6,7.98339E5,2.2927277E5,1.9197162E5,5.234421E5,4.37344E5,2.900248E6,1.1034086E6,4.8928425E5,6.107438E5,1.264406E6,7.311E5,1.0258677E7,4.851132E6,3.380655E6,5.5900425E5,1.260075E5,7.043645E5,0E0,0E0,0E0,0E0,0E0,0E0,0E0,0E0,0E0,0E0,0E0,0E0,0E0,0E0,0E0,0E0,0E0,0E0,0E0,0E0,0E0,0E0,0E0,0E0,0E0,0E0,0E0,0E0,0E0,0E0,0E0,0E0],"parents":[2147483647,0,0,1,1,2,2,3,3,4,4,5,5,6,6,7,7,8,8,9,9,10,10,11,11,12,12,13,13,14,14,15,15,16,16,17,17,18,18,19,19,20,20,21,21,22,22,23,23,24,24,25,25,26,26,27,27,28,28,29,29,30,30],"right_children":[2,4,6,8,10,12,14,16,18,20,22,24,26,28,30,32,34,36,38,40,42,44,46,48,50,52,54,56,58,60,62,-1,-1,-1,-1,-1,-1,-1,-1,-1,-1,-1,-1,-1,-1,-1,-1,-1,-1,-1,-1,-1,-1,-1,-1,-1,-1,-1,-1,-1,-1,-1,-1],"split_conditions":[9E0,3E0,2E1,5E0,1.1E1,-1.01E1,2.3E1,2E0,2E0,1.5E1,5E0,1.7E1,1.27E1,1.4E1,3E0,-2.2E1,-1.79E1,2E0,7E0,5E0,1.82E1,1E0,2.5E1,2.4E1,2E0,1.046556E6,2.87E1,-8E0,2.06E1,-1.86E1,7.5E0,2.6877196E0,-1.0254029E0,-1.4828277E0,-3.8927987E0,-1.5814636E1,2.6393688E0,8.981714E-1,3.987929E0,-7.389695E0,-4.694321E0,-1.9429369E0,5.050772E0,-3.6306772E-1,-3.9628289E0,1.9098771E0,-2.4808216E0,7.7062287E0,2.7210476E0,1.56181E1,9.945307E0,4.423235E0,3.6267552E-1,7.5824637E0,2.6759268E1,4.126172E0,-9.8081416E-1,6.3484926E0,1.4548408E1,2.8282049E0,-1.1186302E0,-5.761034E0,-1.9027519E0],"split_indices":[0,2,0,0,2,3,0,0,1,3,0,0,4,4,2,4,4,2,0,0,3,0,1,1,2,6,3,3,3,3,4,0,0,0,0,0,0,0,0,0,0,0,0,0,0,0,0,0,0,0,0,0,0,0,0,0,0,0,0,0,0,0,0],"split_type":[0,0,0,0,0,0,0,0,0,0,0,0,0,0,0,0,0,0,0,0,0,0,0,0,0,0,0,0,0,0,0,0,0,0,0,0,0,0,0,0,0,0,0,0,0,0,0,0,0,0,0,0,0,0,0,0,0,0,0,0,0,0,0],"sum_hessian":[6.9542E4,2.6163E4,4.3379E4,4.304E3,2.1859E4,3.1751E4,1.1628E4,2.411E3,1.893E3,1.7664E4,4.195E3,4.059E3,2.7692E4,8.723E3,2.905E3,9.58E2,1.453E3,6E1,1.833E3,1.6285E4,1.379E3,2.348E3,1.847E3,2.912E3,1.147E3,2.4889E4,2.803E3,8.307E3,4.16E2,4.91E2,2.414E3,2.13E2,7.45E2,5.12E2,9.41E2,3E1,3E1,9.13E2,9.2E2,9.243E3,7.042E3,1.096E3,2.83E2,4.73E2,1.875E3,1.442E3,4.05E2,2.253E3,6.59E2,3.2E2,8.27E2,1.2561E4,1.2328E4,2.665E3,1.38E2,1.606E3,6.701E3,3E2,1.16E2,1.01E2,3.9E2,1.766E3,6.48E2],"tree_param":{"num_deleted":"0","num_feature":"7","num_nodes":"63","size_leaf_vector":"1"}},{"base_weights":[5.111924E-3,-4.5049927E1,1.869738E1,-1.068587E1,-5.1818836E1,5.4623085E1,1.1605427E1,1.1391332E1,-1.7195078E1,-7.0181046E1,-3.96255E1,6.03518E1,1.2777492E1,-2.126162E1,2.593183E1,-2.6725481E1,2.0348854E1,-7.8705606E0,-3.1382818E1,-3.7251335E1,-8.135578E1,-4.4835213E1,-1.1672293E1,4.7156284E1,8.017253E1,2.8440456E1,-2.7204337E0,1.0474839E1,-3.7459984E1,1.4642407E1,5.592389E1,-9.259255E0,-2.0672665E0,3.1053076E0,-2.4051645E0,-1.9257482E0,6.244199E-1,-3.6755974E0,-1.7108058E0,-1.9051434E0,-5.904835E0,-8.828564E0,-5.1374288E0,-4.8678174E0,-8.0205613E-1,-3.1985524E-1,-4.129778E0,-4.4034376E0,5.006812E0,9.776804E0,4.498974E0,5.51032E0,2.0857947E0,5.3157706E0,-6.723169E-1,2.62703E0,-1.334681E0,-1.9478064E0,-5.524213E0,-7.0376784E-1,5.0492444E0,4.8272805E0,1.3082519E1],"categories":[],"categories_nodes":[],"categories_segments":[],"categories_sizes":[],"default_left":[0,0,0,0,0,0,0,0,0,0,0,0,0,0,0,0,0,0,0,0,0,0,0,0,0,0,0,0,0,0,0,0,0,0,0,0,0,0,0,0,0,0,0,0,0,0,0,0,0,0,0,0,0,0,0,0,0,0,0,0,0,0,0],"id":16,"left_children":[1,3,5,7,9,11,13,15,17,19,21,23,25,27,29,31,33,35,37,39,41,43,45,47,49,51,53,55,57,59,61,-1,-1,-1,-1,-1,-1,-1,-1,-1,-1,-1,-1,-1,-1,-1,-1,-1,-1,-1,-1,-1,-1,-1,-1,-1,-1,-1,-1,-1,-1,-1,-1],"loss_changes":[5.856863E7,4.742768E6,1.252248E7,4.826138E5,3.81152E6,1.94169E6,1.9329624E7,2.6173945E5,3.4279094E5,2.498136E6,1.490709E6,1.860252E6,2.3723777E5,6.406841E6,9.679218E6,5.6293336E4,2.9541606E5,2.5181353E5,7.821944E4,6.82792E5,1.049676E6,1.2207E6,4.0404022E5,1.138949E6,1.75806E6,9.710553E4,1.1040076E5,1.5852161E6,2.63724E6,1.6145016E7,4.473992E6,0E0,0E0,0E0,0E0,0E0,0E0,0E0,0E0,0E0,0E0,0E0,0E0,0E0,0E0,0E0,0E0,0E0,0E0,0E0,0E0,0E0,0E0,0E0,0E0,0E0,0E0,0E0,0E0,0E0,0E0,0E0,0E0],"parents":[2147483647,0,0,1,1,2,2,3,3,4,4,5,5,6,6,7,7,8,8,9,9,10,10,11,11,12,12,13,13,14,14,15,15,16,16,17,17,18,18,19,19,20,20,21,21,22,22,23,23,24,24,25,25,26,26,27,27,28,28,29,29,30,30],"right_children":[2,4,6,8,10,12,14,16,18,20,22,24,26,28,30,32,34,36,38,40,42,44,46,48,50,52,54,56,58,60,62,-1,-1,-1,-1,-1,-1,-1,-1,-1,-1,-1,-1,-1,-1,-1,-1,-1,-1,-1,-1,-1,-1,-1,-1,-1,-1,-1,-1,-1,-1,-1,-1],"split_conditions":[7E0,3E0,3E0,-2.2E1,7E0,2.2E1,6E0,1.00292E6,1.050945E6,4E0,1.2E1,1.6E1,2.3E1,4E0,1.74E1,3E0,2.2E1,1.00292E6,5E0,1.8E1,1.13E1,1.39E1,2.5E1,2E0,2E1,-1.81E1,-2.65E1,1.050945E6,1.046556E6,1.1E1,2.66E1,-9.259255E0,-2.0672665E0,3.1053076E0,-2.4051645E0,-1.9257482E0,6.244199E-1,-3.6755974E0,-1.7108058E0,-1.9051434E0,-5.904835E0,-8.828564E0,-5.1374288E0,-4.8678174E0,-8.0205613E-1,-3.1985524E-1,-4.129778E0,-4.4034376E0,5.006812E0,9.776804E0,4.498974E0,5.51032E0,2.0857947E0,5.3157706E0,-6.723169E-1,2.62703E0,-1.334681E0,-1.9478064E0,-5.524213E0,-7.0376784E-1,5.0492444E0,4.8272805E0,1.3082519E1],"split_indices":[0,2,2,4,2,0,2,6,6,2,2,0,0,2,3,1,1,6,0,1,3,3,1,1,0,3,3,6,6,2,3,0,0,0,0,0,0,0,0,0,0,0,0,0,0,0,0,0,0,0,0,0,0,0,0,0,0,0,0,0,0,0,0],"split_type":[0,0,0,0,0,0,0,0,0,0,0,0,0,0,0,0,0,0,0,0,0,0,0,0,0,0,0,0,0,0,0,0,0,0,0,0,0,0,0,0,0,0,0,0,0,0,0,0,0,0,0,0,0,0,0,0,0,0,0,0,0,0,0],"sum_hessian":[6.9542E4,2.0391E4,4.9151E4,3.356E3,1.7035E4,8.102E3,4.1049E4,7.64E2,2.592E3,6.796E3,1.0239E4,7.126E3,9.76E2,1.2461E4,2.8588E4,1.45E2,6.19E2,1.565E3,1.027E3,1.723E3,5.073E3,8.63E3,1.609E3,4.28E3,2.846E3,4.85E2,4.91E2,4.211E3,8.25E3,2.0771E4,7.817E3,1.1E1,1.34E2,4.99E2,1.2E2,8.66E2,6.99E2,7.45E2,2.82E2,9.4E2,7.83E2,4.119E3,9.54E2,7.814E3,8.16E2,1.252E3,3.57E2,1.32E2,4.148E3,1.896E3,9.5E2,1.06E2,3.79E2,3.2E1,4.59E2,2.532E3,1.679E3,4.103E3,4.147E3,1.2944E4,7.827E3,7.094E3,7.23E2],"tree_param":{"num_deleted":"0","num_feature":"7","num_nodes":"63","size_leaf_vector":"1"}},{"base_weights":[4.5040757E-3,-3.4014503E1,2.0522562E1,-1.3273084E0,-4.0450203E1,2.7157427E1,-2.2386053E1,-1.5987049E1,1.7342503E1,-4.7372612E1,-1.1297489E1,4.16787E1,1.2602207E1,1.1512277E1,-2.9232616E1,-5.0134534E-1,-2.6189802E1,-5.8061073E1,1.9841017E1,-5.1725594E1,-8.252639E0,-2.6102945E1,7.5278993E0,5.8192654E1,2.9115042E1,7.529411E0,9.8876335E1,2.5612013E1,-2.4389107E0,-3.8247562E1,1.3065961E1,1.6022996E0,-1.0503536E0,9.0670216E-1,-2.8856418E0,-1.4070292E1,2.6453717E0,6.7653184E0,1.6214046E0,-3.8726404E0,-6.5366817E0,-1.7156935E0,4.106359E0,-1.0325536E0,-3.7096355E0,1.69342E0,-2.0244815E0,4.3763E0,7.358417E0,1.1187199E0,5.3651047E0,7.317179E0,9.842543E-2,8.226391E0,2.7803537E1,3.6953313E0,8.786688E-1,2.4268663E0,-9.3998665E-1,-4.460403E0,1.3999041E0,-3.5887508E0,2.5088096E0],"categories":[],"categories_nodes":[],"categories_segments":[],"categories_sizes":[],"default_left":[0,0,0,0,0,0,0,0,0,0,0,0,0,0,0,0,0,0,0,0,0,0,0,0,0,0,0,0,0,0,0,0,0,0,0,0,0,0,0,0,0,0,0,0,0,0,0,0,0,0,0,0,0,0,0,0,0,0,0,0,0,0,0],"id":17,"left_children":[1,3,5,7,9,11,13,15,17,19,21,23,25,27,29,31,33,35,37,39,41,43,45,47,49,51,53,55,57,59,61,-1,-1,-1,-1,-1,-1,-1,-1,-1,-1,-1,-1,-1,-1,-1,-1,-1,-1,-1,-1,-1,-1,-1,-1,-1,-1,-1,-1,-1,-1,-1,-1],"loss_changes":[4.854199E7,5.503934E6,1.2350584E7,1.1785324E6,4.410964E6,7.940496E6,1.3487622E6,3.8107525E5,3.5797575E5,3.00772E6,1.1696991E6,3.9003E6,8.2117785E6,1.9224623E5,1.843798E6,1.5867142E5,1.369615E5,4.2977406E5,3.1694306E5,2.816224E6,7.779582E5,4.0704538E5,4.8311156E5,1.801294E6,4.698613E6,7.6148605E6,3.078398E6,9.2414375E4,9.1695945E4,1.3240585E6,5.011467E5,0E0,0E0,0E0,0E0,0E0,0E0,0E0,0E0,0E0,0E0,0E0,0E0,0E0,0E0,0E0,0E0,0E0,0E0,0E0,0E0,0E0,0E0,0E0,0E0,0E0,0E0,0E0,0E0,0E0,0E0,0E0,0E0],"parents":[2147483647,0,0,1,1,2,2,3,3,4,4,5,5,6,6,7,7,8,8,9,9,10,10,11,11,12,12,13,13,14,14,15,15,16,16,17,17,18,18,19,19,20,20,21,21,22,22,23,23,24,24,25,25,26,26,27,27,28,28,29,29,30,30],"right_children":[2,4,6,8,10,12,14,16,18,20,22,24,26,28,30,32,34,36,38,40,42,44,46,48,50,52,54,56,58,60,62,-1,-1,-1,-1,-1,-1,-1,-1,-1,-1,-1,-1,-1,-1,-1,-1,-1,-1,-1,-1,-1,-1,-1,-1,-1,-1,-1,-1,-1,-1,-1,-1],"split_conditions":[9E0,3E0,2.2E1,5E0,1.1E1,1.046556E6,3E0,2E0,2E0,1.2E1,5E0,3.2E0,1.45E1,2.3E1,1.01E1,-1.68E1,-3.18E1,2E0,-2.8E1,1.046556E6,1.5E1,2E0,2.4E1,1.6E1,1.67E1,-1.4E1,2.87E1,1.050945E6,-1.86E1,1.2E1,1.25E1,1.6022996E0,-1.0503536E0,9.0670216E-1,-2.8856418E0,-1.4070292E1,2.6453717E0,6.7653184E0,1.6214046E0,-3.8726404E0,-6.5366817E0,-1.7156935E0,4.106359E0,-1.0325536E0,-3.7096355E0,1.69342E0,-2.0244815E0,4.3763E0,7.358417E0,1.1187199E0,5.3651047E0,7.317179E0,9.842543E-2,8.226391E0,2.7803537E1,3.6953313E0,8.786688E-1,2.4268663E0,-9.3998665E-1,-4.460403E0,1.3999041E0,-3.5887508E0,2.5088096E0],"split_indices":[0,2,0,0,2,6,2,0,1,4,0,3,4,0,4,4,4,2,3,6,4,0,1,0,3,3,3,6,3,2,3,0,0,0,0,0,0,0,0,0,0,0,0,0,0,0,0,0,0,0,0,0,0,0,0,0,0,0,0,0,0,0,0],"split_type":[0,0,0,0,0,0,0,0,0,0,0,0,0,0,0,0,0,0,0,0,0,0,0,0,0,0,0,0,0,0,0,0,0,0,0,0,0,0,0,0,0,0,0,0,0,0,0,0,0,0,0,0,0,0,0,0,0,0,0,0,0,0,0],"sum_hessian":[6.9542E4,2.6163E4,4.3379E4,4.304E3,2.1859E4,3.757E4,5.809E3,2.411E3,1.893E3,1.7664E4,4.195E3,1.8806E4,1.8764E4,9.76E2,4.833E3,9.58E2,1.453E3,6E1,1.833E3,1.5895E4,1.769E3,2.348E3,1.847E3,8.124E3,1.0682E4,1.7723E4,1.041E3,4.85E2,4.91E2,3.984E3,8.49E2,3.61E2,5.97E2,1.02E2,1.351E3,3E1,3E1,1.28E2,1.705E3,8.141E3,7.754E3,1.499E3,2.7E2,9.65E2,1.383E3,1.38E3,4.67E2,4.195E3,3.929E3,6.173E3,4.509E3,1.606E3,1.6117E4,9.54E2,8.7E1,2.89E2,1.96E2,1.01E2,3.9E2,3.552E3,4.32E2,1.67E2,6.82E2],"tree_param":{"num_deleted":"0","num_feature":"7","num_nodes":"63","size_leaf_vector":"1"}},{"base_weights":[4.717033E-3,-3.6923965E1,1.5325551E1,-8.738639E0,-4.255322E1,4.588953E1,9.292049E0,2.6223558E1,-1.2484997E1,-1.6379953E1,-4.7017048E1,5.932794E1,3.0999609E1,-1.9473001E1,2.1830465E1,-1.495533E1,3.907977E1,-1.8618124E1,1.4833199E0,-2.3969763E1,5.5930643E0,-5.4427197E1,-3.185911E1,-9.7033554E1,6.411947E1,3.9943443E1,-4.550002E0,8.534182E0,-3.376785E1,1.6550598E1,6.890217E1,-5.9877205E0,6.950672E-1,6.274707E0,1.986679E0,9.4475365E-1,-2.50654E0,7.6360077E-1,-1.757231E0,-1.1433351E0,-3.713562E0,2.4486695E-1,8.942828E0,-5.974838E0,-3.408306E0,-1.8378414E0,-4.3304563E0,-1.5473231E1,-3.781865E0,7.187387E0,2.8003554E0,6.3167834E0,2.0136676E0,-8.614463E-1,6.8324738E0,1.9239784E0,-2.2568595E0,-2.2348382E0,-5.4586463E0,4.9858615E-1,4.2915144E0,6.0370297E0,1.5697275E1],"categories":[],"categories_nodes":[],"categories_segments":[],"categories_sizes":[],"default_left":[0,0,0,0,0,0,0,0,0,0,0,0,0,0,0,0,0,0,0,0,0,0,0,0,0,0,0,0,0,0,0,0,0,0,0,0,0,0,0,0,0,0,0,0,0,0,0,0,0,0,0,0,0,0,0,0,0,0,0,0,0,0,0],"id":18,"left_children":[1,3,5,7,9,11,13,15,17,19,21,23,25,27,29,31,33,35,37,39,41,43,45,47,49,51,53,55,57,59,61,-1,-1,-1,-1,-1,-1,-1,-1,-1,-1,-1,-1,-1,-1,-1,-1,-1,-1,-1,-1,-1,-1,-1,-1,-1,-1,-1,-1,-1,-1,-1,-1],"loss_changes":[3.9346484E7,3.23507E6,9.063585E6,4.451385E5,1.985038E6,1.619546E6,1.4805854E7,1.7475848E5,2.6286153E5,4.1339275E5,1.62919E6,3.196358E6,1.223017E6,4.989554E6,7.104153E6,7.815683E4,1.1288797E5,3.8601606E5,1.0999119E5,3.0360238E5,1.6770127E5,1.053558E6,7.351805E5,4.2805975E5,1.155186E6,1.412308E6,2.2984466E5,1.4029206E6,1.960352E6,7.8378255E6,2.15683E6,0E0,0E0,0E0,0E0,0E0,0E0,0E0,0E0,0E0,0E0,0E0,0E0,0E0,0E0,0E0,0E0,0E0,0E0,0E0,0E0,0E0,0E0,0E0,0E0,0E0,0E0,0E0,0E0,0E0,0E0,0E0,0E0],"parents":[2147483647,0,0,1,1,2,2,3,3,4,4,5,5,6,6,7,7,8,8,9,9,10,10,11,11,12,12,13,13,14,14,15,15,16,16,17,17,18,18,19,19,20,20,21,21,22,22,23,23,24,24,25,25,26,26,27,27,28,28,29,29,30,30],"right_children":[2,4,6,8,10,12,14,16,18,20,22,24,26,28,30,32,34,36,38,40,42,44,46,48,50,52,54,56,58,60,62,-1,-1,-1,-1,-1,-1,-1,-1,-1,-1,-1,-1,-1,-1,-1,-1,-1,-1,-1,-1,-1,-1,-1,-1,-1,-1,-1,-1,-1,-1,-1,-1],"split_conditions":[7E0,-1.06E1,3E0,-2.8E1,1E0,2E0,6E0,1.026499E6,5E0,7.6E0,5E0,2E0,1.128811E6,4E0,2.25E1,7E0,7.2E1,1E0,2.4E1,1.046556E6,1.9E1,8.4E0,2.2E0,1.6E1,2.1E1,1.4E1,2.8E1,2.4E1,1.8E1,1.1E1,2.87E1,-5.9877205E0,6.950672E-1,6.274707E0,1.986679E0,9.4475365E-1,-2.50654E0,7.6360077E-1,-1.757231E0,-1.1433351E0,-3.713562E0,2.4486695E-1,8.942828E0,-5.974838E0,-3.408306E0,-1.8378414E0,-4.3304563E0,-1.5473231E1,-3.781865E0,7.187387E0,2.8003554E0,6.3167834E0,2.0136676E0,-8.614463E-1,6.8324738E0,1.9239784E0,-2.2568595E0,-2.2348382E0,-5.4586463E0,4.9858615E-1,4.2915144E0,6.0370297E0,1.5697275E1],"split_indices":[0,3,2,3,0,2,2,6,0,4,0,1,6,2,3,1,5,0,1,6,3,4,3,0,0,1,1,1,0,2,3,0,0,0,0,0,0,0,0,0,0,0,0,0,0,0,0,0,0,0,0,0,0,0,0,0,0,0,0,0,0,0,0],"split_type":[0,0,0,0,0,0,0,0,0,0,0,0,0,0,0,0,0,0,0,0,0,0,0,0,0,0,0,0,0,0,0,0,0,0,0,0,0,0,0,0,0,0,0,0,0,0,0,0,0,0,0,0,0,0,0,0,0,0,0,0,0,0,0],"sum_hessian":[6.9542E4,2.0391E4,4.9151E4,3.395E3,1.6996E4,8.102E3,4.1049E4,3.28E2,3.067E3,2.477E3,1.4519E4,4.257E3,3.845E3,1.2461E4,2.8588E4,7.8E1,2.5E2,2.131E3,9.36E2,1.841E3,6.36E2,9.75E3,4.769E3,1.26E2,4.131E3,3.072E3,7.73E2,4.211E3,8.25E3,2.5706E4,2.882E3,2.5E1,5.3E1,1.11E2,1.39E2,3.98E2,1.733E3,7.08E2,2.28E2,9.44E2,8.97E2,6.14E2,2.2E1,7.727E3,2.023E3,2.191E3,2.578E3,6.3E1,6.3E1,3.4E3,7.31E2,1.413E3,1.659E3,7.33E2,4E1,3.133E3,1.078E3,5.329E3,2.921E3,1.7869E4,7.837E3,2.629E3,2.53E2],"tree_param":{"num_deleted":"0","num_feature":"7","num_nodes":"63","size_leaf_vector":"1"}},{"base_weights":[4.451165E-3,-2.5861124E1,1.8585407E1,-3.957803E0,-3.3160374E1,3.141764E1,-4.4500923E0,-1.8898983E1,1.1029757E1,-5.6410347E1,-2.161926E1,1.601231E0,3.7694122E1,-9.306032E0,4.466428E1,-4.480455E0,-2.856442E1,4.948275E1,7.824918E0,-6.058656E1,1.3093966E0,-3.303313E1,-1.0078001E1,-7.7842126E0,6.7865295E1,2.938402E1,5.4765312E1,8.8177395E0,-2.5667372E1,3.220358E1,1.04221756E2,1.1890461E0,-1.1586175E0,-1.9683514E0,-4.6311355E0,-2.4553E0,6.6550646E0,2.0289469E0,-4.9606824E-1,-6.5370827E0,-4.222462E0,5.4007775E-1,-1.199796E1,-1.4022845E0,-4.5915294E0,2.4718753E-1,-2.295126E0,1.6810292E0,-3.0649836E0,-1.0628487E1,7.3172984E0,4.0529037E0,1.7986809E0,4.137808E0,1.0948634E1,2.5650449E0,-8.710055E-1,-4.9946886E-1,-4.005199E0,5.012262E0,5.865157E-1,7.9353633E0,1.5596438E1],"categories":[],"categories_nodes":[],"categories_segments":[],"categories_sizes":[],"default_left":[0,0,0,0,0,0,0,0,0,0,0,0,0,0,0,0,0,0,0,0,0,0,0,0,0,0,0,0,0,0,0,0,0,0,0,0,0,0,0,0,0,0,0,0,0,0,0,0,0,0,0,0,0,0,0,0,0,0,0,0,0,0,0],"id":19,"left_children":[1,3,5,7,9,11,13,15,17,19,21,23,25,27,29,31,33,35,37,39,41,43,45,47,49,51,53,55,57,59,61,-1,-1,-1,-1,-1,-1,-1,-1,-1,-1,-1,-1,-1,-1,-1,-1,-1,-1,-1,-1,-1,-1,-1,-1,-1,-1,-1,-1,-1,-1,-1,-1],"loss_changes":[3.3423338E7,4.647998E6,1.1963243E7,1.627745E6,5.849996E6,4.864138E6,3.4538445E6,5.0714738E5,4.4683497E5,1.743592E6,1.9195065E6,2.812218E6,3.04448E6,3.9078875E6,9.6363625E5,1.7020806E5,3.4251812E5,3.54188E5,5.341387E5,5.8978E5,2.433091E5,1.793693E6,1.1710275E6,2.2280575E6,5.2632875E5,1.833978E6,5.144658E6,1.84511E6,2.059375E6,5.0895012E5,2.7714075E5,0E0,0E0,0E0,0E0,0E0,0E0,0E0,0E0,0E0,0E0,0E0,0E0,0E0,0E0,0E0,0E0,0E0,0E0,0E0,0E0,0E0,0E0,0E0,0E0,0E0,0E0,0E0,0E0,0E0,0E0,0E0,0E0],"parents":[2147483647,0,0,1,1,2,2,3,3,4,4,5,5,6,6,7,7,8,8,9,9,10,10,11,11,12,12,13,13,14,14,15,15,16,16,17,17,18,18,19,19,20,20,21,21,22,22,23,23,24,24,25,25,26,26,27,27,28,28,29,29,30,30],"right_children":[2,4,6,8,10,12,14,16,18,20,22,24,26,28,30,32,34,36,38,40,42,44,46,48,50,52,54,56,58,60,62,-1,-1,-1,-1,-1,-1,-1,-1,-1,-1,-1,-1,-1,-1,-1,-1,-1,-1,-1,-1,-1,-1,-1,-1,-1,-1,-1,-1,-1,-1,-1,-1],"split_conditions":[1E1,4E0,1.9E1,5E0,7E0,3.9E1,1.24E1,2E0,-2.88E1,1.59E1,5E0,2.59E1,1.6E1,1E0,1.62E1,-1.68E1,3E0,5E0,1.046556E6,1.13E1,3.1E1,2E0,1.046556E6,1.046556E6,-3.2E0,1.046556E6,1.1E1,1.046556E6,1.026499E6,8.5E1,1.128811E6,1.1890461E0,-1.1586175E0,-1.9683514E0,-4.6311355E0,-2.4553E0,6.6550646E0,2.0289469E0,-4.9606824E-1,-6.5370827E0,-4.222462E0,5.4007775E-1,-1.199796E1,-1.4022845E0,-4.5915294E0,2.4718753E-1,-2.295126E0,1.6810292E0,-3.0649836E0,-1.0628487E1,7.3172984E0,4.0529037E0,1.7986809E0,4.137808E0,1.0948634E1,2.5650449E0,-8.710055E-1,-4.9946886E-1,-4.005199E0,5.012262E0,5.865157E-1,7.9353633E0,1.5596438E1],"split_indices":[0,2,0,0,2,5,4,0,4,3,0,3,0,3,4,4,2,1,6,3,1,0,6,6,4,6,2,6,6,5,6,0,0,0,0,0,0,0,0,0,0,0,0,0,0,0,0,0,0,0,0,0,0,0,0,0,0,0,0,0,0,0,0],"split_type":[0,0,0,0,0,0,0,0,0,0,0,0,0,0,0,0,0,0,0,0,0,0,0,0,0,0,0,0,0,0,0,0,0,0,0,0,0,0,0,0,0,0,0,0,0,0,0,0,0,0,0,0,0,0,0,0,0,0,0,0,0,0,0],"sum_hessian":[6.9542E4,2.9072E4,4.047E4,7.267E3,2.1805E4,2.5991E4,1.4479E4,3.639E3,3.628E3,7.232E3,1.4573E4,4.52E3,2.1471E4,1.3177E4,1.302E3,1.461E3,2.178E3,2.78E2,3.35E3,6.744E3,4.88E2,7.326E3,7.247E3,3.96E3,5.6E2,1.4443E4,7.028E3,6.252E3,6.925E3,1.078E3,2.24E2,4.42E2,1.019E3,1.453E3,7.25E2,5.2E1,2.26E2,1.696E3,1.654E3,5.348E3,1.396E3,4.73E2,1.5E1,2.96E3,4.366E3,3.67E3,3.577E3,1.908E3,2.052E3,1.6E1,5.44E2,7.301E3,7.142E3,5.648E3,1.38E3,3.189E3,3.063E3,2.842E3,4.083E3,6.41E2,4.37E2,1.53E2,7.1E1],"tree_param":{"num_deleted":"0","num_feature":"7","num_nodes":"63","size_leaf_vector":"1"}},{"base_weights":[4.1824393E-3,-2.3276062E1,1.6727924E1,-1.0382429E1,-3.4023083E1,2.8276505E1,-4.003252E0,-2.3500395E1,3.142219E0,-3.90469E1,5.6376845E-1,1.4400544E0,3.392569E1,3.3592052E0,-3.332756E1,-9.157481E0,-3.2790043E1,1.4636766E1,-8.792365E0,-2.8222925E1,-5.045285E1,-3.5736538E1,1.2022908E1,-7.006163E0,6.1072903E1,6.8177185E1,2.9938753E1,4.994048E1,-1.031086E0,-1.1709344E1,-4.07481E1,1.7859577E0,-1.3419316E0,-1.666416E0,-4.044103E0,2.1794634E0,-9.0589803E-1,4.2617755E0,-1.774481E0,-3.6801765E0,-1.4531579E0,-7.8464556E0,-4.3500223E0,-3.8032117E0,4.388195E0,-1.0946583E0,2.9930475E0,1.8771886E0,-2.4741375E0,7.164261E0,-1.2881997E0,5.0709634E0,1.292643E1,2.3073506E0,5.5577188E0,6.0130596E0,1.4507045E0,-7.4666137E-1,4.1447835E0,6.34567E-1,-1.9598879E0,-5.1597676E0,-1.5358492E0],"categories":[],"categories_nodes":[],"categories_segments":[],"categories_sizes":[],"default_left":[0,0,0,0,0,0,0,0,0,0,0,0,0,0,0,0,0,0,0,0,0,0,0,0,0,0,0,0,0,0,0,0,0,0,0,0,0,0,0,0,0,0,0,0,0,0,0,0,0,0,0,0,0,0,0,0,0,0,0,0,0,0,0],"id":20,"left_children":[1,3,5,7,9,11,13,15,17,19,21,23,25,27,29,31,33,35,37,39,41,43,45,47,49,51,53,55,57,59,61,-1,-1,-1,-1,-1,-1,-1,-1,-1,-1,-1,-1,-1,-1,-1,-1,-1,-1,-1,-1,-1,-1,-1,-1,-1,-1,-1,-1,-1,-1,-1,-1],"loss_changes":[2.707576E7,4.028239E6,9.689503E6,2.345157E6,2.75513E6,3.940446E6,3.126329E6,8.937445E5,8.930505E5,1.707848E6,8.373619E5,2.2775292E6,2.930144E6,2.367201E6,4.657E5,3.041E5,5.017245E5,5.6262744E5,1.4707829E6,8.34107E5,1.309236E6,8.994706E4,6.296589E5,1.8113508E6,4.3944625E5,2.381486E6,3.38435E6,3.5911525E5,2.892336E6,1.0610395E5,5.950415E5,0E0,0E0,0E0,0E0,0E0,0E0,0E0,0E0,0E0,0E0,0E0,0E0,0E0,0E0,0E0,0E0,0E0,0E0,0E0,0E0,0E0,0E0,0E0,0E0,0E0,0E0,0E0,0E0,0E0,0E0,0E0,0E0],"parents":[2147483647,0,0,1,1,2,2,3,3,4,4,5,5,6,6,7,7,8,8,9,9,10,10,11,11,12,12,13,13,14,14,15,15,16,16,17,17,18,18,19,19,20,20,21,21,22,22,23,23,24,24,25,25,26,26,27,27,28,28,29,29,30,30],"right_children":[2,4,6,8,10,12,14,16,18,20,22,24,26,28,30,32,34,36,38,40,42,44,46,48,50,52,54,56,58,60,62,-1,-1,-1,-1,-1,-1,-1,-1,-1,-1,-1,-1,-1,-1,-1,-1,-1,-1,-1,-1,-1,-1,-1,-1,-1,-1,-1,-1,-1,-1,-1,-1],"split_conditions":[1E1,1E-1,1.9E1,5E0,1.21E1,3.9E1,2.3E1,2E0,1.046556E6,1.046556E6,8E0,2.59E1,2E0,-1.55E1,4E0,-2.2E1,3E0,2.4E1,-1.91E1,6E0,1.050945E6,2.16E1,1.51E1,1.026499E6,9E0,1.7E1,1.1E1,2.3E1,1.16E1,-1.64E1,7.5E0,1.7859577E0,-1.3419316E0,-1.666416E0,-4.044103E0,2.1794634E0,-9.0589803E-1,4.2617755E0,-1.774481E0,-3.6801765E0,-1.4531579E0,-7.8464556E0,-4.3500223E0,-3.8032117E0,4.388195E0,-1.0946583E0,2.9930475E0,1.8771886E0,-2.4741375E0,7.164261E0,-1.2881997E0,5.0709634E0,1.292643E1,2.3073506E0,5.5577188E0,6.0130596E0,1.4507045E0,-7.4666137E-1,4.1447835E0,6.34567E-1,-1.9598879E0,-5.1597676E0,-1.5358492E0],"split_indices":[0,3,0,0,4,5,0,0,6,6,1,3,2,3,2,4,2,1,3,0,6,3,3,6,2,0,2,1,4,4,4,0,0,0,0,0,0,0,0,0,0,0,0,0,0,0,0,0,0,0,0,0,0,0,0,0,0,0,0,0,0,0,0],"split_type":[0,0,0,0,0,0,0,0,0,0,0,0,0,0,0,0,0,0,0,0,0,0,0,0,0,0,0,0,0,0,0,0,0,0,0,0,0,0,0,0,0,0,0,0,0,0,0,0,0,0,0,0,0,0,0,0,0,0,0,0,0,0,0],"sum_hessian":[6.9542E4,2.9072E4,4.047E4,1.3217E4,1.5855E4,2.5991E4,1.4479E4,6.709E3,6.508E3,1.3844E4,2.011E3,4.52E3,2.1471E4,1.1574E4,2.905E3,2.638E3,4.071E3,3.315E3,3.193E3,7.105E3,6.739E3,4.82E2,1.529E3,3.96E3,5.6E2,2.237E3,1.9234E4,9.96E2,1.0578E4,7.43E2,2.162E3,3.59E2,2.279E3,1.311E3,2.76E3,2.546E3,7.69E2,4.73E2,2.72E3,4.367E3,2.738E3,1.338E3,5.401E3,4.69E2,1.3E1,6.7E2,8.59E2,1.614E3,2.346E3,4.9E2,7E1,1.741E3,4.96E2,1.5173E4,4.061E3,7.73E2,2.23E2,9.187E3,1.391E3,2.26E2,5.17E2,1.514E3,6.48E2],"tree_param":{"num_deleted":"0","num_feature":"7","num_nodes":"63","size_leaf_vector":"1"}},{"base_weights":[4.0129824E-3,-2.2872557E1,1.3801675E1,-1.1293834E1,-3.277245E1,1.8810266E1,-1.8589304E1,-2.1151169E1,1.0667818E0,-3.952129E1,-1.2780161E1,3.048914E1,7.1042504E0,-2.426692E1,8.160605E0,9.366521E-1,-2.6383202E1,1.1908131E1,-1.0293403E1,-2.92806E1,-5.0551254E1,-1.7248726E1,4.777091E1,4.1688965E1,2.1038425E1,3.8088424E0,9.7925316E1,-7.362572E0,-4.161846E1,1.3865629E1,-5.3049088E1,3.2768447E0,-4.0075466E-1,-1.2223988E0,-3.3093965E0,8.091341E-2,2.3700206E0,3.1136305E0,-1.8126265E0,-3.968638E0,-1.950236E0,-6.0447454E0,-3.6097012E0,3.3499286E-1,-2.336199E0,2.5456955E0,7.987157E0,2.8916576E0,5.5498643E0,1.4120452E-1,3.8198178E0,1.0861651E1,9.4899215E-2,7.8519664E0,2.4746626E1,3.8073087E0,-1.0669204E0,-2.5929139E0,-5.906526E0,3.058935E0,-6.156759E-1,-3.2971134E0,-7.3776155E0],"categories":[],"categories_nodes":[],"categories_segments":[],"categories_sizes":[],"default_left":[0,0,0,0,0,0,0,0,0,0,0,0,0,0,0,0,0,0,0,0,0,0,0,0,0,0,0,0,0,0,0,0,0,0,0,0,0,0,0,0,0,0,0,0,0,0,0,0,0,0,0,0,0,0,0,0,0,0,0,0,0,0,0],"id":21,"left_children":[1,3,5,7,9,11,13,15,17,19,21,23,25,27,29,31,33,35,37,39,41,43,45,47,49,51,53,55,57,59,61,-1,-1,-1,-1,-1,-1,-1,-1,-1,-1,-1,-1,-1,-1,-1,-1,-1,-1,-1,-1,-1,-1,-1,-1,-1,-1,-1,-1,-1,-1,-1,-1],"loss_changes":[2.1951088E7,2.998759E6,7.038024E6,1.4695676E6,1.902474E6,5.13623E6,8.82596E5,7.7546075E5,6.592734E5,1.189513E6,9.6434656E5,1.989776E6,5.6158505E6,1.4055598E6,3.56224E5,2.0252548E5,5.150745E5,3.5846166E5,8.488419E5,5.557995E5,7.23756E5,4.1777144E5,1.7345844E5,1.516342E6,3.4358145E6,5.4277845E6,1.887143E6,3.653367E5,6.4583625E5,3.1226744E5,3.3773203E4,0E0,0E0,0E0,0E0,0E0,0E0,0E0,0E0,0E0,0E0,0E0,0E0,0E0,0E0,0E0,0E0,0E0,0E0,0E0,0E0,0E0,0E0,0E0,0E0,0E0,0E0,0E0,0E0,0E0,0E0,0E0,0E0],"parents":[2147483647,0,0,1,1,2,2,3,3,4,4,5,5,6,6,7,7,8,8,9,9,10,10,11,11,12,12,13,13,14,14,15,15,16,16,17,17,18,18,19,19,20,20,21,21,22,22,23,23,24,24,25,25,26,26,27,27,28,28,29,29,30,30],"right_children":[2,4,6,8,10,12,14,16,18,20,22,24,26,28,30,32,34,36,38,40,42,44,46,48,50,52,54,56,58,60,62,-1,-1,-1,-1,-1,-1,-1,-1,-1,-1,-1,-1,-1,-1,-1,-1,-1,-1,-1,-1,-1,-1,-1,-1,-1,-1,-1,-1,-1,-1,-1,-1],"split_conditions":[9E0,1E-1,2.2E1,5E0,9.9E0,1.046556E6,1.26E1,1E0,1.046556E6,1.046556E6,1.82E1,4.2E0,1.57E1,1E-1,9E0,-2.2E1,3E0,7E0,-1.86E1,7E0,1.128811E6,2E0,1.99E1,1.6E1,1.5E1,-2.3E1,2.87E1,-2.66E1,1.046556E6,2.3E1,1E1,3.2768447E0,-4.0075466E-1,-1.2223988E0,-3.3093965E0,8.091341E-2,2.3700206E0,3.1136305E0,-1.8126265E0,-3.968638E0,-1.950236E0,-6.0447454E0,-3.6097012E0,3.3499286E-1,-2.336199E0,2.5456955E0,7.987157E0,2.8916576E0,5.5498643E0,1.4120452E-1,3.8198178E0,1.0861651E1,9.4899215E-2,7.8519664E0,2.4746626E1,3.8073087E0,-1.0669204E0,-2.5929139E0,-5.906526E0,3.058935E0,-6.156759E-1,-3.2971134E0,-7.3776155E0],"split_indices":[0,3,0,0,4,6,3,0,6,6,3,3,4,3,2,4,2,0,3,2,6,0,3,0,3,3,3,4,6,0,1,0,0,0,0,0,0,0,0,0,0,0,0,0,0,0,0,0,0,0,0,0,0,0,0,0,0,0,0,0,0,0,0],"split_type":[0,0,0,0,0,0,0,0,0,0,0,0,0,0,0,0,0,0,0,0,0,0,0,0,0,0,0,0,0,0,0,0,0,0,0,0,0,0,0,0,0,0,0,0,0,0,0,0,0,0,0,0,0,0,0,0,0,0,0,0,0,0,0],"sum_hessian":[6.9542E4,2.6163E4,4.3379E4,1.206E4,1.4103E4,3.757E4,5.809E3,6.709E3,5.351E3,1.0543E4,3.56E3,1.8806E4,1.8764E4,4.792E3,1.017E3,1.285E3,5.424E3,2.738E3,2.613E3,5.469E3,5.074E3,3.316E3,2.44E2,8.605E3,1.0201E4,1.8108E4,6.56E2,2.428E3,2.364E3,9.31E2,8.6E1,1.72E2,1.113E3,1.745E3,3.679E3,1.411E3,1.327E3,4.15E2,2.198E3,2.648E3,2.821E3,3.01E3,2.064E3,7.59E2,2.557E3,1.45E2,9.9E1,4.472E3,4.133E3,4.759E3,5.442E3,4.8E2,1.7628E4,5.82E2,7.4E1,1.64E2,2.264E3,1.246E3,1.118E3,5.07E2,4.24E2,4.5E1,4.1E1],"tree_param":{"num_deleted":"0","num_feature":"7","num_nodes":"63","size_leaf_vector":"1"}},{"base_weights":[4.1641733E-3,-1.904412E1,1.3687808E1,-1.8066207E0,-2.4788553E1,2.3629421E1,-4.1586075E0,-1.3145377E1,9.567003E0,-5.0877205E1,-1.732132E1,1.9877638E1,5.552535E1,-7.784635E0,4.1896225E1,6.162057E0,-1.7867079E1,1.8132227E1,-1.34262E0,-5.7036816E1,-3.6371902E1,-2.325087E1,-1.6902435E0,3.5007805E1,4.605901E0,4.9164516E1,1.6963474E2,2.3942799E1,-1.465907E1,1.5392824E1,7.230075E1,4.9513035E0,3.9282647E-1,-1.1428843E0,-3.055528E0,-8.4488934E-1,2.3953905E0,2.4715302E0,-1.5987746E0,-3.2334797E0,-6.1139917E0,-8.312162E0,-3.2919204E0,-2.8077562E0,4.8989812E-1,1.0494975E1,-2.7285787E-1,2.6216593E0,6.493511E0,2.0137553E0,-1.096147E0,7.4016875E-1,6.2014127E0,1.1707961E1,2.5766184E1,3.6422107E0,4.9089748E-1,-3.5444813E0,-6.367203E-2,-9.518092E-1,3.5272691E0,6.27994E0,1.4981574E1],"categories":[],"categories_nodes":[],"categories_segments":[],"categories_sizes":[],"default_left":[0,0,0,0,0,0,0,0,0,0,0,0,0,0,0,0,0,0,0,0,0,0,0,0,0,0,0,0,0,0,0,0,0,0,0,0,0,0,0,0,0,0,0,0,0,0,0,0,0,0,0,0,0,0,0,0,0,0,0,0,0,0,0],"id":22,"left_children":[1,3,5,7,9,11,13,15,17,19,21,23,25,27,29,31,33,35,37,39,41,43,45,47,49,51,53,55,57,59,61,-1,-1,-1,-1,-1,-1,-1,-1,-1,-1,-1,-1,-1,-1,-1,-1,-1,-1,-1,-1,-1,-1,-1,-1,-1,-1,-1,-1,-1,-1,-1,-1],"loss_changes":[1.8126638E7,2.878753E6,7.180551E6,9.37427E5,4.247149E6,3.10927E6,2.4184298E6,3.3194688E5,3.391304E5,4.31437E5,1.5714385E6,5.373924E6,1.976807E6,2.928235E6,8.506425E5,6.9140836E4,2.3859288E5,3.1480244E5,6.098447E5,3.43035E5,2.311505E5,1.67026E6,5.1672206E5,3.072063E6,2.7991468E6,1.3905015E6,6.360165E5,5.677529E5,3.2160012E6,2.806335E5,3.5294825E5,0E0,0E0,0E0,0E0,0E0,0E0,0E0,0E0,0E0,0E0,0E0,0E0,0E0,0E0,0E0,0E0,0E0,0E0,0E0,0E0,0E0,0E0,0E0,0E0,0E0,0E0,0E0,0E0,0E0,0E0,0E0,0E0],"parents":[2147483647,0,0,1,1,2,2,3,3,4,4,5,5,6,6,7,7,8,8,9,9,10,10,11,11,12,12,13,13,14,14,15,15,16,16,17,17,18,18,19,19,20,20,21,21,22,22,23,23,24,24,25,25,26,26,27,27,28,28,29,29,30,30],"right_children":[2,4,6,8,10,12,14,16,18,20,22,24,26,28,30,32,34,36,38,40,42,44,46,48,50,52,54,56,58,60,62,-1,-1,-1,-1,-1,-1,-1,-1,-1,-1,-1,-1,-1,-1,-1,-1,-1,-1,-1,-1,-1,-1,-1,-1,-1,-1,-1,-1,-1,-1,-1,-1],"split_conditions":[1E1,4E0,1.9E1,5E0,6E0,1.2E1,1.86E1,1E0,1.8E1,7E0,1.1E1,5.5E0,2.87E1,3E0,1.050945E6,-3.02E1,3E0,4E0,2E0,1E0,-2.6E0,1.5E1,-3.29E1,1.7E1,1.046556E6,8E0,1.128811E6,1.050945E6,7E0,7E0,2.48E1,4.9513035E0,3.9282647E-1,-1.1428843E0,-3.055528E0,-8.4488934E-1,2.3953905E0,2.4715302E0,-1.5987746E0,-3.2334797E0,-6.1139917E0,-8.312162E0,-3.2919204E0,-2.8077562E0,4.8989812E-1,1.0494975E1,-2.7285787E-1,2.6216593E0,6.493511E0,2.0137553E0,-1.096147E0,7.4016875E-1,6.2014127E0,1.1707961E1,2.5766184E1,3.6422107E0,4.9089748E-1,-3.5444813E0,-6.367203E-2,-9.518092E-1,3.5272691E0,6.27994E0,1.4981574E1],"split_indices":[0,2,0,0,2,4,3,0,1,0,2,3,3,2,6,4,2,1,2,0,3,3,3,0,6,1,6,6,2,2,3,0,0,0,0,0,0,0,0,0,0,0,0,0,0,0,0,0,0,0,0,0,0,0,0,0,0,0,0,0,0,0,0],"split_type":[0,0,0,0,0,0,0,0,0,0,0,0,0,0,0,0,0,0,0,0,0,0,0,0,0,0,0,0,0,0,0,0,0,0,0,0,0,0,0,0,0,0,0,0,0,0,0,0,0,0,0,0,0,0,0,0,0,0,0,0,0,0,0],"sum_hessian":[6.9542E4,2.9072E4,4.047E4,7.267E3,2.1805E4,2.5991E4,1.4479E4,3.639E3,3.628E3,4.851E3,1.6954E4,2.3257E4,2.734E3,1.3423E4,1.056E3,7.15E2,2.924E3,2.032E3,1.596E3,3.403E3,1.448E3,1.2291E4,4.663E3,1.1682E4,1.1575E4,2.591E3,1.43E2,2.39E3,1.1033E4,5.65E2,4.91E2,3.4E1,6.81E2,1.941E3,9.83E2,3.65E2,1.667E3,5.74E2,1.022E3,4.86E2,2.917E3,9.8E1,1.35E3,1.0492E4,1.799E3,4.4E1,4.619E3,9.031E3,2.651E3,5.794E3,5.781E3,6.1E2,1.981E3,9.1E1,5.2E1,1.443E3,9.47E2,4.444E3,6.589E3,2.51E2,3.14E2,4.39E2,5.2E1],"tree_param":{"num_deleted":"0","num_feature":"7","num_nodes":"63","size_leaf_vector":"1"}},{"base_weights":[4.739241E-3,-2.2613026E1,9.388314E0,-3.5584254E0,-2.636647E1,4.2536053E1,6.2442565E0,-2.240935E1,-4.8175636E-1,-3.851688E1,-1.8298826E1,-5.47371E1,4.8901585E1,-6.892762E0,1.7179453E1,-3.443741E1,-1.038824E1,3.1238083E1,-2.7405574E0,-1.6739948E1,-4.5908466E1,-2.1819456E1,5.8618027E-1,-9.671021E1,-1.5139139E1,9.228685E1,4.403791E1,1.1155165E1,-1.8676964E1,2.1621145E1,-1.5938379E1,-7.2231956E0,-2.356918E0,-1.685826E0,6.630421E-1,5.882545E0,1.1007599E0,4.1293737E-1,-1.3281776E0,-1.7476496E-1,-3.471318E0,-2.762018E0,-5.3211117E0,-2.9230566E0,-9.4302815E-1,8.2291394E-1,-2.6165817E0,-1.5371028E1,-4.9587474E0,-4.3060102E0,5.0606017E0,-2.7036655E-1,1.096166E1,5.594246E0,2.5861967E0,2.5215077E0,-5.391602E-1,-3.3342488E0,6.5585846E-1,3.2350894E-2,2.9374766E0,1.2170075E0,-3.0262463E0],"categories":[],"categories_nodes":[],"categories_segments":[],"categories_sizes":[],"default_left":[0,0,0,0,0,0,0,0,0,0,0,0,0,0,0,0,0,0,0,0,0,0,0,0,0,0,0,0,0,0,0,0,0,0,0,0,0,0,0,0,0,0,0,0,0,0,0,0,0,0,0,0,0,0,0,0,0,0,0,0,0,0,0],"id":23,"left_children":[1,3,5,7,9,11,13,15,17,19,21,23,25,27,29,31,33,35,37,39,41,43,45,47,49,51,53,55,57,59,61,-1,-1,-1,-1,-1,-1,-1,-1,-1,-1,-1,-1,-1,-1,-1,-1,-1,-1,-1,-1,-1,-1,-1,-1,-1,-1,-1,-1,-1,-1,-1,-1],"loss_changes":[1.4759706E7,1.45835E6,5.122277E6,1.9468869E5,1.669251E6,2.63921E6,6.44955E6,6.774444E4,2.0693569E5,1.093318E6,6.80841E5,4.3399294E5,8.39351E5,4.3378245E6,3.604422E6,9.482609E4,2.6208104E4,1.065088E5,1.9529227E5,4.6448853E5,6.76178E5,7.9220125E5,3.29403E5,3.3349975E5,2.5182992E5,6.620535E5,7.76643E5,1.8745652E6,4.566791E6,3.567541E6,1.1671838E6,0E0,0E0,0E0,0E0,0E0,0E0,0E0,0E0,0E0,0E0,0E0,0E0,0E0,0E0,0E0,0E0,0E0,0E0,0E0,0E0,0E0,0E0,0E0,0E0,0E0,0E0,0E0,0E0,0E0,0E0,0E0,0E0],"parents":[2147483647,0,0,1,1,2,2,3,3,4,4,5,5,6,6,7,7,8,8,9,9,10,10,11,11,12,12,13,13,14,14,15,15,16,16,17,17,18,18,19,19,20,20,21,21,22,22,23,23,24,24,25,25,26,26,27,27,28,28,29,29,30,30],"right_children":[2,4,6,8,10,12,14,16,18,20,22,24,26,28,30,32,34,36,38,40,42,44,46,48,50,52,54,56,58,60,62,-1,-1,-1,-1,-1,-1,-1,-1,-1,-1,-1,-1,-1,-1,-1,-1,-1,-1,-1,-1,-1,-1,-1,-1,-1,-1,-1,-1,-1,-1,-1,-1],"split_conditions":[7E0,3E0,2E0,5E0,7E0,3E0,7E0,2E0,-3.18E1,4E0,1.2E1,2E0,-2.66E1,4E0,2.2E1,9.83238E5,5E0,7.1E1,1.050945E6,1.8E1,2E0,7.4E0,2.5E1,1.5E1,-3.8E0,9.83238E5,1.050945E6,1.7E1,1.54E1,1.1E1,9E0,-7.2231956E0,-2.356918E0,-1.685826E0,6.630421E-1,5.882545E0,1.1007599E0,4.1293737E-1,-1.3281776E0,-1.7476496E-1,-3.471318E0,-2.762018E0,-5.3211117E0,-2.9230566E0,-9.4302815E-1,8.2291394E-1,-2.6165817E0,-1.5371028E1,-4.9587474E0,-4.3060102E0,5.0606017E0,-2.7036655E-1,1.096166E1,5.594246E0,2.5861967E0,2.5215077E0,-5.391602E-1,-3.3342488E0,6.5585846E-1,3.2350894E-2,2.9374766E0,1.2170075E0,-3.0262463E0],"split_indices":[0,2,2,1,2,1,2,2,4,2,2,1,4,2,0,6,0,5,6,1,0,4,1,0,3,6,6,1,3,0,2,0,0,0,0,0,0,0,0,0,0,0,0,0,0,0,0,0,0,0,0,0,0,0,0,0,0,0,0,0,0,0,0],"split_type":[0,0,0,0,0,0,0,0,0,0,0,0,0,0,0,0,0,0,0,0,0,0,0,0,0,0,0,0,0,0,0,0,0,0,0,0,0,0,0,0,0,0,0,0,0,0,0,0,0,0,0,0,0,0,0,0,0,0,0,0,0,0,0],"sum_hessian":[6.9542E4,2.0391E4,4.9151E4,3.356E3,1.7035E4,4.257E3,4.4894E4,4.7E2,2.886E3,6.796E3,1.0239E4,2.61E2,3.996E3,2.0394E4,2.45E4,2.34E2,2.36E2,1.91E2,2.695E3,1.723E3,5.073E3,8.63E3,1.609E3,1.26E2,1.35E2,4.01E2,3.595E3,8.056E3,1.2338E4,2.1603E4,2.897E3,5.1E1,1.83E2,1.71E2,6.5E1,8E1,1.11E2,1.632E3,1.063E3,9.4E2,7.83E2,1.449E3,3.624E3,5.399E3,3.231E3,1.252E3,3.57E2,5.6E1,7E1,9.5E1,4E1,6.2E1,3.39E2,2.171E3,1.424E3,4.355E3,3.701E3,7.803E3,4.535E3,5.766E3,1.5837E4,9.78E2,1.919E3],"tree_param":{"num_deleted":"0","num_feature":"7","num_nodes":"63","size_leaf_vector":"1"}},{"base_weights":[3.9431048E-3,-1.55304575E1,1.1163332E1,3.1670938E0,-1.9209602E1,1.9754435E1,-4.258706E0,9.572395E0,-1.8200333E1,-8.921862E0,-2.6311825E1,1.0580641E1,2.9987661E1,1.0095496E1,-1.3915009E1,2.4172798E1,-1.3443228E0,-5.1803905E1,-1.0099922E1,-1.4212068E1,8.103669E0,-2.7957006E1,2.9636349E1,-9.3353134E-1,3.835591E1,2.1332253E1,4.7371693E1,1.7223127E1,-1.761626E1,-2.0497786E1,3.2680946E1,-6.6621536E-1,3.2139509E0,-1.161942E0,1.2817345E0,-7.348602E0,-2.7724288E0,-2.9304416E0,2.4605258E-1,-2.0383375E0,6.7218654E-2,-1.0052813E0,2.181315E0,-3.0632663E0,-9.1591036E-1,4.958155E0,-1.9721464E0,1.1665801E0,-1.2447903E0,3.3927114E0,1.0822231E1,1.1745383E1,2.051444E0,3.3832352E0,8.125492E0,2.916808E0,4.416124E-1,-2.2299914E0,1.0551458E-1,2.8364189E0,-2.706274E0,8.8928634E-1,7.2622695E0],"categories":[],"categories_nodes":[],"categories_segments":[],"categories_sizes":[],"default_left":[0,0,0,0,0,0,0,0,0,0,0,0,0,0,0,0,0,0,0,0,0,0,0,0,0,0,0,0,0,0,0,0,0,0,0,0,0,0,0,0,0,0,0,0,0,0,0,0,0,0,0,0,0,0,0,0,0,0,0,0,0,0,0],"id":24,"left_children":[1,3,5,7,9,11,13,15,17,19,21,23,25,27,29,31,33,35,37,39,41,43,45,47,49,51,53,55,57,59,61,-1,-1,-1,-1,-1,-1,-1,-1,-1,-1,-1,-1,-1,-1,-1,-1,-1,-1,-1,-1,-1,-1,-1,-1,-1,-1,-1,-1,-1,-1,-1,-1],"loss_changes":[1.2055759E7,2.000022E6,5.362181E6,6.545248E5,1.774753E6,2.439747E6,2.0071919E6,5.8642275E5,2.997164E5,8.938656E5,1.323607E6,4.383661E6,1.847613E6,1.1506552E6,2.6560385E6,3.86872E5,3.0659828E5,1.0969144E5,2.1475525E5,6.954501E5,5.859185E5,7.01911E5,4.055873E5,1.4060515E6,1.2392845E6,6.4250225E5,1.870354E6,7.0862275E5,1.04264375E5,2.434179E6,1.01790175E6,0E0,0E0,0E0,0E0,0E0,0E0,0E0,0E0,0E0,0E0,0E0,0E0,0E0,0E0,0E0,0E0,0E0,0E0,0E0,0E0,0E0,0E0,0E0,0E0,0E0,0E0,0E0,0E0,0E0,0E0,0E0,0E0],"parents":[2147483647,0,0,1,1,2,2,3,3,4,4,5,5,6,6,7,7,8,8,9,9,10,10,11,11,12,12,13,13,14,14,15,15,16,16,17,17,18,18,19,19,20,20,21,21,22,22,23,23,24,24,25,25,26,26,27,27,28,28,29,29,30,30],"right_children":[2,4,6,8,10,12,14,16,18,20,22,24,26,28,30,32,34,36,38,40,42,44,46,48,50,52,54,56,58,60,62,-1,-1,-1,-1,-1,-1,-1,-1,-1,-1,-1,-1,-1,-1,-1,-1,-1,-1,-1,-1,-1,-1,-1,-1,-1,-1,-1,-1,-1,-1,-1,-1],"split_conditions":[1E1,-1.08E1,1.9E1,2.4E1,1.026499E6,6.3E1,1.026499E6,7.8E1,9.83238E5,1.00292E6,1.45E1,7.1E0,1.6E1,2.3E1,1.64E1,5E0,1.3E1,-1.79E1,2.7E1,7E0,7E0,1.1E1,8E0,1.046556E6,2.87E1,-2.98E1,1.1E1,3.8E0,7.5E0,-1.4E1,1.128811E6,-6.6621536E-1,3.2139509E0,-1.161942E0,1.2817345E0,-7.348602E0,-2.7724288E0,-2.9304416E0,2.4605258E-1,-2.0383375E0,6.7218654E-2,-1.0052813E0,2.181315E0,-3.0632663E0,-9.1591036E-1,4.958155E0,-1.9721464E0,1.1665801E0,-1.2447903E0,3.3927114E0,1.0822231E1,1.1745383E1,2.051444E0,3.3832352E0,8.125492E0,2.916808E0,4.416124E-1,-2.2299914E0,1.0551458E-1,2.8364189E0,-2.706274E0,8.8928634E-1,7.2622695E0],"split_indices":[0,3,0,1,6,5,6,5,6,6,4,4,0,0,3,1,1,4,1,0,2,2,2,6,3,3,2,3,4,3,6,0,0,0,0,0,0,0,0,0,0,0,0,0,0,0,0,0,0,0,0,0,0,0,0,0,0,0,0,0,0,0,0],"split_type":[0,0,0,0,0,0,0,0,0,0,0,0,0,0,0,0,0,0,0,0,0,0,0,0,0,0,0,0,0,0,0,0,0,0,0,0,0,0,0,0,0,0,0,0,0,0,0,0,0,0,0,0,0,0,0,0,0,0,0,0,0,0,0],"sum_hessian":[6.9542E4,2.9072E4,4.047E4,4.78E3,2.4292E4,2.5991E4,1.4479E4,3.678E3,1.102E3,9.922E3,1.437E4,1.3706E4,1.2285E4,5.823E3,8.656E3,1.573E3,2.105E3,2.13E2,8.89E2,7.57E3,2.352E3,1.396E4,4.1E2,9.69E3,4.016E3,8.203E3,4.082E3,4.632E3,1.191E3,7.585E3,1.071E3,3.23E2,1.25E3,1.22E3,8.85E2,1.11E2,1.02E2,3.51E2,5.38E2,5.351E3,2.219E3,1.012E3,1.34E3,1.222E4,1.74E3,2.92E2,1.18E2,4.627E3,5.063E3,3.778E3,2.38E2,6.8E1,8.135E3,2.918E3,1.164E3,2.396E3,2.236E3,9.52E2,2.39E2,8.98E2,6.687E3,6.72E2,3.99E2],"tree_param":{"num_deleted":"0","num_feature":"7","num_nodes":"63","size_leaf_vector":"1"}},{"base_weights":[4.0794E-3,-1.8607838E1,7.725723E0,7.694678E-1,-2.1842422E1,1.705627E1,-1.6397518E0,-3.7138119E0,1.6143433E1,-1.3684899E1,-2.938476E1,1.933697E1,-1.8618912E1,-4.1382747E0,7.464759E1,2.7469099E1,-6.295675E0,1.48284235E1,1.3650879E2,-1.9172127E1,-3.003966E0,-3.943226E1,-1.5850688E1,1.5784369E1,3.7058186E1,-7.599898E0,-2.5165136E1,5.192566E1,-7.328417E0,5.6731743E1,1.5805873E2,4.580987E0,1.6812006E0,3.053379E-1,-1.5975742E0,2.4957461E0,4.0135527E-1,1.6203835E1,-8.33429E-1,-8.759529E-1,-2.4041328E0,4.304629E-1,-1.0645951E0,-4.6750503E0,-2.3877645E0,-1.7510207E0,4.1033816E0,3.7187154E0,1.0577903E0,5.0546865E0,-4.4276366E-1,-1.8190001E0,-1.4056665E-1,-3.4533393E0,-1.2492297E0,1.109298E1,3.895149E0,-8.879576E-1,4.4853435E0,-2.8891022E0,6.5934334E0,1.0835365E1,2.2193401E1],"categories":[],"categories_nodes":[],"categories_segments":[],"categories_sizes":[],"default_left":[0,0,0,0,0,0,0,0,0,0,0,0,0,0,0,0,0,0,0,0,0,0,0,0,0,0,0,0,0,0,0,0,0,0,0,0,0,0,0,0,0,0,0,0,0,0,0,0,0,0,0,0,0,0,0,0,0,0,0,0,0,0,0],"id":25,"left_children":[1,3,5,7,9,11,13,15,17,19,21,23,25,27,29,31,33,35,37,39,41,43,45,47,49,51,53,55,57,59,61,-1,-1,-1,-1,-1,-1,-1,-1,-1,-1,-1,-1,-1,-1,-1,-1,-1,-1,-1,-1,-1,-1,-1,-1,-1,-1,-1,-1,-1,-1,-1,-1],"loss_changes":[9.994487E6,1.2781375E6,4.2951755E6,2.0118538E5,1.074778E6,2.003713E6,4.676057E6,1.8212556E5,1.0228331E5,4.9207975E5,1.2339695E6,1.456415E6,1.065655E5,4.2488285E6,1.1536615E6,3.3044305E4,1.8901166E5,7.14322E4,2.7234938E4,2.8102812E5,1.5928038E5,5.91951E5,3.660497E5,2.148033E6,2.1624755E6,3.6249867E4,1.0974306E5,9.747915E5,1.8196579E6,5.0776962E5,4.1091775E5,0E0,0E0,0E0,0E0,0E0,0E0,0E0,0E0,0E0,0E0,0E0,0E0,0E0,0E0,0E0,0E0,0E0,0E0,0E0,0E0,0E0,0E0,0E0,0E0,0E0,0E0,0E0,0E0,0E0,0E0,0E0,0E0],"parents":[2147483647,0,0,1,1,2,2,3,3,4,4,5,5,6,6,7,7,8,8,9,9,10,10,11,11,12,12,13,13,14,14,15,15,16,16,17,17,18,18,19,19,20,20,21,21,22,22,23,23,24,24,25,25,26,26,27,27,28,28,29,29,30,30],"right_children":[2,4,6,8,10,12,14,16,18,20,22,24,26,28,30,32,34,36,38,40,42,44,46,48,50,52,54,56,58,60,62,-1,-1,-1,-1,-1,-1,-1,-1,-1,-1,-1,-1,-1,-1,-1,-1,-1,-1,-1,-1,-1,-1,-1,-1,-1,-1,-1,-1,-1,-1,-1,-1],"split_conditions":[7E0,1E0,1.046556E6,7.4E0,4E-1,2.3E1,1.57E1,-2.2E1,2.08E1,5E0,7E0,1.1E1,-1.2E0,-1.86E1,2.74E1,7.4E1,1.046556E6,9.2E1,1.073761E6,3E0,1.046556E6,5E0,1.76E1,3E0,2.4E1,9.83238E5,9.3E0,-3.34E1,2.48E1,3E0,1.128811E6,4.580987E0,1.6812006E0,3.053379E-1,-1.5975742E0,2.4957461E0,4.0135527E-1,1.6203835E1,-8.33429E-1,-8.759529E-1,-2.4041328E0,4.304629E-1,-1.0645951E0,-4.6750503E0,-2.3877645E0,-1.7510207E0,4.1033816E0,3.7187154E0,1.0577903E0,5.0546865E0,-4.4276366E-1,-1.8190001E0,-1.4056665E-1,-3.4533393E0,-1.2492297E0,1.109298E1,3.895149E0,-8.879576E-1,4.4853435E0,-2.8891022E0,6.5934334E0,1.0835365E1,2.2193401E1],"split_indices":[0,0,6,4,3,0,4,4,3,0,4,2,3,3,3,5,6,5,6,2,6,0,3,2,1,6,3,4,3,1,6,0,0,0,0,0,0,0,0,0,0,0,0,0,0,0,0,0,0,0,0,0,0,0,0,0,0,0,0,0,0,0,0],"split_type":[0,0,0,0,0,0,0,0,0,0,0,0,0,0,0,0,0,0,0,0,0,0,0,0,0,0,0,0,0,0,0,0,0,0,0,0,0,0,0,0,0,0,0,0,0,0,0,0,0,0,0,0,0,0,0,0,0,0,0,0,0,0,0],"sum_hessian":[6.9542E4,2.0391E4,4.9151E4,2.917E3,1.7474E4,2.4621E4,2.453E4,2.259E3,6.58E2,8.396E3,9.078E3,2.3142E4,1.479E3,2.3753E4,7.77E2,1.72E2,2.087E3,6.52E2,6E0,5.546E3,2.85E3,5.209E3,3.869E3,1.9279E4,3.863E3,5.52E2,9.27E2,1.278E3,2.2475E4,6.41E2,1.36E2,6.2E1,1.1E2,1.062E3,1.025E3,3.36E2,3.16E2,5E0,1E0,1.768E3,3.778E3,1.457E3,1.393E3,3.541E3,1.668E3,3.76E3,1.09E2,3.771E3,1.5508E4,2.915E3,9.48E2,2.03E2,3.49E2,5.32E2,3.95E2,2.29E2,1.049E3,2.1827E4,6.48E2,6.2E1,5.79E2,7.8E1,5.8E1],"tree_param":{"num_deleted":"0","num_feature":"7","num_nodes":"63","size_leaf_vector":"1"}},{"base_weights":[4.7232695E-3,-1.2917259E1,9.287439E0,-3.0289927E-1,-1.7121067E1,1.6830372E1,-4.252974E0,-8.36629E0,7.7850165E0,-3.754834E1,-1.1274401E1,4.650518E1,1.4029846E1,-8.103274E0,2.343544E1,2.1366212E0,-1.5409379E1,1.4542848E1,-8.22658E-1,-6.2423306E1,-3.4320965E1,-1.4106116E0,-1.7964024E1,3.210318E1,9.697799E1,-2.3595924E0,2.337651E1,4.690075E0,-2.0703608E1,-5.9083676E0,4.2537724E1,1.1548275E0,-2.6344082E-1,-9.0065163E-1,-2.3515184E0,-2.7563775E0,1.719855E0,1.955305E0,-1.2274475E0,-7.21801E0,-3.3469121E0,-4.1385875E0,-2.7485878E0,-7.287571E-1,1.6421722E0,-2.3629391E0,-2.4608777E-1,-1.1378382E1,3.6120007E0,-9.445664E-1,1.0053771E1,1.2458512E0,-1.6804075E0,3.6031003E0,1.4885888E0,1.5570248E0,-6.642169E-1,-3.8157392E-1,-3.1866307E0,-2.7401302E0,2.4424455E0,2.2144916E0,7.6691294E0],"categories":[],"categories_nodes":[],"categories_segments":[],"categories_sizes":[],"default_left":[0,0,0,0,0,0,0,0,0,0,0,0,0,0,0,0,0,0,0,0,0,0,0,0,0,0,0,0,0,0,0,0,0,0,0,0,0,0,0,0,0,0,0,0,0,0,0,0,0,0,0,0,0,0,0,0,0,0,0,0,0,0,0],"id":26,"left_children":[1,3,5,7,9,11,13,15,17,19,21,23,25,27,29,31,33,35,37,39,41,43,45,47,49,51,53,55,57,59,61,-1,-1,-1,-1,-1,-1,-1,-1,-1,-1,-1,-1,-1,-1,-1,-1,-1,-1,-1,-1,-1,-1,-1,-1,-1,-1,-1,-1,-1,-1,-1,-1],"loss_changes":[8.341879E6,1.5416885E6,4.1335535E6,4.740552E5,2.603899E6,2.1594145E6,1.543884E6,2.6929438E5,2.1110803E5,3.873805E5,1.118751E6,1.6258905E6,3.638543E6,2.0494385E6,9.91275E5,6.567901E4,1.12879125E5,2.2780947E5,3.728822E5,1.54654E5,2.06361E5,7.183134E5,8.872985E5,1.0266841E6,1.892325E5,1.8467311E6,1.624669E6,7.779826E5,1.2073118E6,4.557244E5,7.442394E5,0E0,0E0,0E0,0E0,0E0,0E0,0E0,0E0,0E0,0E0,0E0,0E0,0E0,0E0,0E0,0E0,0E0,0E0,0E0,0E0,0E0,0E0,0E0,0E0,0E0,0E0,0E0,0E0,0E0,0E0,0E0,0E0],"parents":[2147483647,0,0,1,1,2,2,3,3,4,4,5,5,6,6,7,7,8,8,9,9,10,10,11,11,12,12,13,13,14,14,15,15,16,16,17,17,18,18,19,19,20,20,21,21,22,22,23,23,24,24,25,25,26,26,27,27,28,28,29,29,30,30],"right_children":[2,4,6,8,10,12,14,16,18,20,22,24,26,28,30,32,34,36,38,40,42,44,46,48,50,52,54,56,58,60,62,-1,-1,-1,-1,-1,-1,-1,-1,-1,-1,-1,-1,-1,-1,-1,-1,-1,-1,-1,-1,-1,-1,-1,-1,-1,-1,-1,-1,-1,-1,-1,-1],"split_conditions":[1E1,4E0,1.9E1,5E0,6E0,2E0,1.64E1,2E0,1.8E1,-3.2E0,1.026499E6,1.7E1,6E0,1.1E0,7E0,2E0,1.8E1,2E0,2E0,1.073761E6,5E0,1.00292E6,1.1E1,2E0,2E0,4E0,1.026499E6,1.046556E6,1.026499E6,2.2E1,1.073761E6,1.1548275E0,-2.6344082E-1,-9.0065163E-1,-2.3515184E0,-2.7563775E0,1.719855E0,1.955305E0,-1.2274475E0,-7.21801E0,-3.3469121E0,-4.1385875E0,-2.7485878E0,-7.287571E-1,1.6421722E0,-2.3629391E0,-2.4608777E-1,-1.1378382E1,3.6120007E0,-9.445664E-1,1.0053771E1,1.2458512E0,-1.6804075E0,3.6031003E0,1.4885888E0,1.5570248E0,-6.642169E-1,-3.8157392E-1,-3.1866307E0,-2.7401302E0,2.4424455E0,2.2144916E0,7.6691294E0],"split_indices":[0,2,0,0,2,2,3,0,1,3,6,0,2,3,2,2,1,1,2,6,0,6,2,1,1,2,6,6,6,1,6,0,0,0,0,0,0,0,0,0,0,0,0,0,0,0,0,0,0,0,0,0,0,0,0,0,0,0,0,0,0,0,0],"split_type":[0,0,0,0,0,0,0,0,0,0,0,0,0,0,0,0,0,0,0,0,0,0,0,0,0,0,0,0,0,0,0,0,0,0,0,0,0,0,0,0,0,0,0,0,0,0,0,0,0,0,0,0,0,0,0,0,0,0,0,0,0,0,0],"sum_hessian":[6.9542E4,2.9072E4,4.047E4,7.267E3,2.1805E4,2.5991E4,1.4479E4,3.639E3,3.628E3,4.851E3,1.6954E4,2.24E3,2.3751E4,1.2712E4,1.767E3,1.461E3,2.178E3,2.032E3,1.596E3,5.55E2,4.296E3,6.852E3,1.0102E4,1.744E3,4.96E2,8.626E3,1.5125E4,6.308E3,6.404E3,6.97E2,1.07E3,4.91E2,9.7E2,1.218E3,9.6E2,1.2E2,1.912E3,5.74E2,1.022E3,4.14E2,1.41E2,2.11E3,2.186E3,5.154E3,1.698E3,7.398E3,2.704E3,4.6E1,1.698E3,1.6E1,4.8E2,4.258E3,4.368E3,6.072E3,9.053E3,3.218E3,3.09E3,2.549E3,3.855E3,4.08E2,2.89E2,6.71E2,3.99E2],"tree_param":{"num_deleted":"0","num_feature":"7","num_nodes":"63","size_leaf_vector":"1"}},{"base_weights":[4.1053123E-3,-1.5308474E1,6.356931E0,-4.073478E0,-1.9849539E1,3.8650124E0,3.3556877E1,-8.276229E0,1.0710405E1,-2.7231634E1,-8.772344E0,2.420962E1,-5.994901E-1,-6.204874E0,4.4988453E1,-2.226379E0,-1.9299026E1,9.428629E0,1.2777729E2,-1.8745235E1,-3.5087353E1,-2.3767865E0,-1.7159681E1,6.2928104E1,2.1849585E1,-7.0845785E0,2.3468555E1,4.9253723E1,-1.1316787E1,3.92759E1,1.22671974E2,1.3973675E0,-4.595488E-1,-9.4761354E-1,-2.9505868E0,7.4578774E-1,6.243395E0,6.0418887E0,1.4065514E1,-6.2157524E-1,-2.2301795E0,-4.466356E0,-1.9595686E0,4.847643E-1,-1.0288185E0,-3.1625936E0,-7.937576E-1,-1.5808555E0,7.622249E0,2.6234422E0,4.4810182E-1,4.111707E-1,-1.859732E0,3.216404E0,-3.7051785E-1,7.4551086E0,-7.1716423E0,-4.807792E0,-3.505949E-1,-1.4168274E0,4.2831187E0,-6.4927757E-1,1.3640406E1],"categories":[],"categories_nodes":[],"categories_segments":[],"categories_sizes":[],"default_left":[0,0,0,0,0,0,0,0,0,0,0,0,0,0,0,0,0,0,0,0,0,0,0,0,0,0,0,0,0,0,0,0,0,0,0,0,0,0,0,0,0,0,0,0,0,0,0,0,0,0,0,0,0,0,0,0,0,0,0,0,0,0,0],"id":27,"left_children":[1,3,5,7,9,11,13,15,17,19,21,23,25,27,29,31,33,35,37,39,41,43,45,47,49,51,53,55,57,59,61,-1,-1,-1,-1,-1,-1,-1,-1,-1,-1,-1,-1,-1,-1,-1,-1,-1,-1,-1,-1,-1,-1,-1,-1,-1,-1,-1,-1,-1,-1,-1,-1],"loss_changes":[6.7651115E6,1.040296E6,3.3313955E6,3.6487138E5,1.187267E6,4.0898428E6,1.875255E6,3.0484662E5,1.9386492E5,5.802765E5,3.1156388E5,7.390525E5,5.763702E6,2.6194392E5,1.4170245E6,1.1339946E5,1.6214275E5,1.3397481E5,3.6458125E3,1.8662025E5,6.70266E5,1.88491E5,3.3500662E5,4.8794625E5,5.816555E5,3.7496465E6,1.852151E6,2.4404411E5,2.424607E5,5.67974E5,3.8932625E5,0E0,0E0,0E0,0E0,0E0,0E0,0E0,0E0,0E0,0E0,0E0,0E0,0E0,0E0,0E0,0E0,0E0,0E0,0E0,0E0,0E0,0E0,0E0,0E0,0E0,0E0,0E0,0E0,0E0,0E0,0E0,0E0],"parents":[2147483647,0,0,1,1,2,2,3,3,4,4,5,5,6,6,7,7,8,8,9,9,10,10,11,11,12,12,13,13,14,14,15,15,16,16,17,17,18,18,19,19,20,20,21,21,22,22,23,23,24,24,25,25,26,26,27,27,28,28,29,29,30,30],"right_children":[2,4,6,8,10,12,14,16,18,20,22,24,26,28,30,32,34,36,38,40,42,44,46,48,50,52,54,56,58,60,62,